weights: 
0.00399016 -0.0551 0.0988777 -0.00536876 -0.0702248 0.0470608 -0.188316 -0.0174813 0.214417 -0.0542793 0.156509 0.00588877 -0.322623 0.016492 0.0780455 0.0125318 0.253335 -0.0337356 -0.194948 1.15729e-05 -0.0725543 0.02793 0.170803 -0.0119096 -0.0130204 -0.0300012 -0.0736992 0.0919905 -0.00196706 -0.025078 0.0226982 -0.209617 -0.03346 0.211855 -0.0190501 0.150413 -0.00245445 -0.354552 0.00321428 0.0901677 0.0134092 0.242966 -0.0665549 -0.211579 -0.0146302 -0.045215 0.01824 0.134477 -0.0449792 -0.0365949 -0.0240745 -0.0197673 0.15779 0.0176745 -0.0387563 -0.0162321 -0.197653 0.0270246 0.237057 -0.0496626 0.0967819 -0.00977704 -0.290138 0.0675536 0.0977524 -0.0274127 0.220823 -0.0314519 -0.13312 0.0321876 -0.107515 -0.0397528 0.116659 -0.00467019 0.0168734 -0.0266432 0.0941727 0.0415662 -0.0887358 -0.0481533 0.0294451 0.0942858 -0.194466 -0.143974 0.0204195 0.0293815 -0.150764 -0.204732 0.0670169 0.0590555 -0.0393803 -0.132322 0.0437395 0.100713 0.0150031 -0.00913245 -0.0148404 0.0681721 0.0506532 0.00711 -0.0231334 0.103995 0.0554909 -0.0721159 -0.0366358 0.0421908 0.120551 -0.15114 -0.102706 0.0504258 0.0590571 -0.108049 -0.131343 0.140218 0.0941495 -0.00382365 -0.096426 0.100243 0.147691 0.016172 0.00630082 -0.0035882 0.080234 0.0558409 -0.017783 -0.0221451 0.138051 0.0833807 -0.0796807 -0.0536689 0.0455844 0.137709 -0.169266 -0.15557 0.00429688 0.0586187 -0.123218 -0.188259 0.0700642 0.0479146 -0.0315649 -0.125561 0.0605881 0.104447 -0.0128342 -0.0146299 -0.00868544 0.0735652 0.0238549 -0.0421963 -0.00910745 -0.0673169 -0.0735548 -0.0549442 -0.0371587 0.00532759 -0.0353678 -0.054968 -0.0483043 -0.0243693 0.016026 -0.0279911 -0.0462001 -0.036763 -0.0372727 0.0181667 -0.0365652 -0.0730563 -0.0345887 -0.0267304 0.0618448 0.0473707 0.0352399 0.0569944 0.052751 -0.0202627 -0.0485514 -0.046103 -0.0364563 -0.0466779 0.00269087 -0.00157976 -0.008833 -0.0125902 -0.0110291 0.0107364 0.00125065 0.00693656 0.00954925 -0.00390521 0.00749065 -0.0178864 -0.0252793 0.00880943 0.00695378 0.0401483 0.0456053 0.0529182 0.0704391 0.0548341 -0.016536 -0.0419402 -0.0476776 -0.026668 -0.0232559 0.0168503 0.0213594 0.0123855 0.0282719 0.0407427 0.0372559 0.0402622 0.0464952 0.0587641 0.0546951 0.0184388 0.00640208 -0.00495182 0.0204151 0.0309973 0.0163005 0.0364669 0.0413283 0.0525726 0.0440278 -0.0197294 -0.0420339 0.0657716 0.00276313 -0.032188 -0.0705629 -0.0339536 0.164194 0.0124303 -0.0462185 -0.0935724 -0.0102653 0.159575 0.0019847 -0.0780519 -0.0814744 0.0307931 0.14564 0.00794164 -0.0796211 -0.0149911 0.0598047 0.0900023 -0.0196422 -0.0540369 -0.0757415 -0.122839 0.010521 -0.00971956 -0.00302175 -0.134974 -0.117249 0.108421 0.0189476 0.00374799 -0.141025 -0.0766347 0.11646 0.0282335 -0.0189609 -0.0926909 0.00720424 0.126593 0.0357944 -0.0228016 -0.0337169 0.0112638 0.0430485 -0.0127106 -0.0222644 -0.0572886 -0.0794239 0.0658097 0.0250209 0.0152158 -0.127193 -0.077741 0.169463 0.0668171 0.033105 -0.147535 -0.0554983 0.162081 0.0632248 -0.00197951 -0.0968736 0.0355107 0.158095 0.0515198 -0.0197668 -0.0188616 0.0481234 0.065488 -0.0215383 -0.0434243 0.0517363 0.0638948 0.057443 0.00667941 -0.0424759 0.0998969 0.107594 0.0161854 -0.0623573 -0.111682 0.114757 0.129296 -0.0741107 -0.138601 -0.120889 0.157751 0.0765118 -0.136997 -0.100899 -0.0724987 0.0869969 -0.0410753 -0.122901 -0.0369701 -0.0199143 0.0067284 0.0349107 0.0376577 0.0153566 7.55445e-05 0.0915448 0.10056 0.00486648 -0.0454675 -0.0549 0.129779 0.129415 -0.0821581 -0.114738 -0.0392834 0.156373 0.0539903 -0.160183 -0.0898223 0.00156139 0.0665873 -0.0574359 -0.115294 0.00758519 0.0550554 -0.084681 -0.0240134 0.0147035 0.0414271 0.0393521 -0.00904427 0.0361144 -0.00816884 0.0114757 0.0161422 0.0320341 0.069185 -0.0827339 -0.0529326 0.034088 0.100222 0.028124 -0.147374 -0.0486505 0.0452331 0.0159142 -0.0782203 -0.0976208 0.0453266 0.0786583 0.0185429 0.0356377 0.0571111 0.037845 -0.0469646 0.0628194 0.085902 0.0960555 0.0875558 0.00503078 0.0739489 0.116986 0.100809 0.10102 0.0393514 0.0566139 0.0827106 0.0932006 0.11667 0.0486652 0.0188105 0.0380671 0.0387682 0.0709644 0.00942468 0.0142393 -0.00539248 0.00495167 0.0112098 -0.00333307 0.0166564 0.00745224 0.0075425 0.0161589 -0.00561271 -0.000637739 0.0147015 -0.00506979 0.0139645 0.000286133 -0.0185345 -0.0228851 -0.0164026 0.0387795 0.0166964 -0.0232429 -0.0316137 -0.0319438 0.0333679 0.0202447 0.0219731 -0.0219261 -0.032434 -0.0130628 0.0199118 -0.0189404 -0.0575634 -0.0754998 -0.0549363 -0.0163441 -0.052427 -0.0764739 -0.115554 -0.076292 -0.0275177 -0.0656603 -0.118015 -0.136375 -0.0627216 -0.0263689 -0.0340579 -0.08978 -0.110724 -0.0324215 0.00354899 0.0394619 -0.0830801 -0.0350777 0.0340473 0.0292441 0.0792627 -0.0550464 -0.140624 -0.000219031 0.0540211 0.0755489 0.0520253 -0.143907 -0.0742189 0.0409819 0.0543819 0.0973739 -0.0464983 -0.0947845 0.000224406 0.016029 0.0654907 0.0146797 -0.0602444 -0.0294855 0.0156506 -0.102452 -0.0308201 0.0377624 0.0390479 0.0722116 -0.0660123 -0.133393 0.00517971 0.0542869 0.0766572 0.0478348 -0.130929 -0.0591127 0.0459466 0.0529338 0.0936983 -0.0367869 -0.0802766 0.013912 0.00932453 0.0549264 0.0240954 -0.044485 -0.0118077 0.0193803 -0.0828637 0.0011465 0.0732893 0.0629807 0.06128 -0.0567381 -0.108782 0.029245 0.0686213 0.0376668 0.0407871 -0.11846 -0.0347849 0.0740753 0.001614 0.0718558 -0.0395091 -0.0558812 0.0551836 -0.0334438 0.0169123 0.00916732 -0.0212791 0.0397493 -0.0436349 -0.026209 0.0115827 0.011414 0.00811711 -0.0307782 -0.0470832 -0.0231317 -0.0192889 0.0220428 -0.0202993 -0.0357796 -0.0634389 -0.0661434 -0.0116883 0.00276428 -0.0101001 -0.047348 -0.0755903 -0.047421 0.0295082 0.0252418 0.0144761 -0.0411529 -0.0414278 -0.0236715 -0.00832006 0.0224869 0.0269742 0.0208651 -0.00971342 -0.0193773 0.000543532 0.00631596 0.0414887 0.00355755 -0.000493334 -0.0227326 -0.0265447 0.0206642 0.0170138 0.0132115 -0.0146939 -0.0389104 -0.0157418 0.0323472 0.0448116 0.0508924 8.4106e-05 -0.0053574 -0.0167892 -0.0116222 0.0131042 0.0142339 0.0294021 -0.0114247 -0.0374689 -0.0259393 -0.0182843 0.0378407 0.00313314 -0.015914 -0.0638198 -0.0649097 -0.00464963 0.0110324 0.000755131 -0.0566033 -0.0885526 -0.0588316 0.0171015 0.0162463 -0.0012126 -0.0639639 -0.0659219 0.0258063 0.0175469 0.0470167 0.022072 -0.019557 0.0675048 0.0668328 0.097995 0.0759608 0.0255222 0.0365617 0.0465222 0.102638 0.0956066 0.0335995 -0.00246179 0.0244782 0.0799143 0.0742526 0.0394375 -0.00381818 0.0190528 0.0549869 0.0597577 0.0382209 0.00192922 -0.0444073 -0.0403635 -0.0609306 -0.0672759 0.022078 -0.00964679 -0.00480379 -0.0257154 -0.04953 -0.0248912 -0.0367218 -0.00462237 -0.0139405 -0.0578138 -0.0599006 -0.0577426 -0.0284817 -0.0337143 -0.0489984 -0.0417029 -0.0355807 -0.017851 -0.0156498 -0.0148591 0.0380031 -0.0356825 -0.0458771 -0.0656747 -0.0420927 0.0502725 -0.0173365 -0.0235423 -0.0470377 -0.0423731 -0.00220807 -0.0549723 -0.0324737 -0.0470043 -0.0584563 -0.0340215 -0.059969 -0.0430603 -0.0507044 -0.0346212 0.0217952 0.0124366 0.0187971 0.0179756 0.033685 0.0262803 -0.0199928 -0.0191491 0.00205947 0.0348126 0.0728847 0.0743399 0.00283278 -0.0791257 -0.0855561 0.0870132 0.137103 0.0295558 -0.115476 -0.128977 0.0380714 0.0794191 0.0640274 -0.0481328 -0.111786 -0.019064 0.00565564 0.0590782 0.0503907 -0.0475893 0.0592987 -0.00770544 -0.0294084 -0.0291019 0.0163971 0.099522 0.0811088 -0.0118484 -0.0897644 -0.0809574 0.100579 0.116722 -0.00324421 -0.117014 -0.122323 0.0655987 0.0675074 0.0293549 -0.0674086 -0.123394 0.028233 0.0169778 0.0298338 0.0207911 -0.0669595 0.0444894 0.00520337 -0.0259874 -0.0560131 -0.0170522 0.0827778 0.0864113 0.00297533 -0.0895313 -0.0845569 0.0684669 0.105591 0.0187447 -0.10096 -0.0969532 0.041277 0.0734916 0.0587571 -0.0541669 -0.113136 0.009834 0.0240202 0.0401243 0.00164405 -0.0810469 0.0442712 0.130394 0.154851 0.111795 0.0750417 -0.0995919 -0.154338 -0.162033 -0.0907053 -0.0393743 0.014705 0.00558349 -0.00700108 -0.0370932 -0.0269588 0.00908064 0.0817704 0.117526 0.0908118 0.0306573 -0.0381569 -0.0969447 -0.118836 -0.055538 0.00485013 0.00930403 0.0786387 0.0938134 0.0469725 0.0183832 -0.0835655 -0.163251 -0.187488 -0.113076 -0.0537263 0.0757632 0.0621116 0.0294813 -0.00375903 -0.0133382 0.0525995 0.144805 0.169057 0.127414 0.0277736 -0.015141 -0.047166 -0.0812916 -0.026393 -0.00454497 -0.0191616 0.0843868 0.0845603 0.0330324 0.0285982 -0.105423 -0.168379 -0.205159 -0.132415 -0.0572301 0.0621548 0.0468782 0.0084866 -0.0201535 -0.0231461 0.0367993 0.13154 0.150961 0.119004 0.0251008 -0.0299827 -0.0496084 -0.0811145 -0.0254774 0.00979262 -0.0373583 -0.0662113 -0.0606025 -0.0778084 -0.028462 -0.0586884 -0.0934841 -0.107429 -0.0921638 0.00653603 -0.0232403 -0.0919456 -0.0976392 -0.114299 -0.0439802 -0.0382076 -0.0873666 -0.0490572 -0.082447 -0.0325395 -0.00226581 -0.0221417 -0.0329286 -0.0587775 0.00376644 0.105744 0.118474 0.148912 0.102026 0.0624666 0.110744 0.150247 0.167918 0.148159 0.137144 0.137694 0.160989 0.200623 0.153814 0.117262 0.0864814 0.113859 0.18097 0.129384 0.100614 0.0467634 0.0708237 0.0731332 0.0494577 0.0688799 -0.0368138 -0.0709934 -0.0528667 -0.0935675 -0.0554726 -0.0815684 -0.0888404 -0.0778183 -0.0950617 -0.017272 -0.0671181 -0.0827001 -0.0548287 -0.107959 -0.0517548 -0.0856548 -0.0996769 -0.0526032 -0.109765 -0.0520468 -0.0227151 -0.0387349 -0.0547923 -0.091238 -0.0093934 -0.0228362 -0.0623406 -0.0536027 0.0187102 0.0782924 -0.096617 -0.132442 -0.0759878 -0.00152844 0.0731513 -0.105267 -0.117374 -0.0680198 0.0238933 0.0961247 -0.0836492 -0.0751756 0.00472823 0.0989498 0.135081 -0.0147106 0.0243286 0.0983889 0.156389 0.174692 -0.0516986 -0.0696847 -0.0661216 -0.0572389 -0.0188736 -0.0671649 -0.0861765 -0.0634933 -0.0602287 -0.0191415 -0.0617822 -0.0815196 -0.0992061 -0.0788151 -0.0242108 -0.045779 -0.0778115 -0.0753023 -0.0414294 -0.00627511 0.0385819 0.015433 0.0112479 0.0322879 0.0689074 0.0811654 0.137341 0.136054 0.0467185 -0.0236238 0.175984 0.222039 0.213574 0.0859222 0.00452763 0.177015 0.195261 0.121085 -0.0114411 -0.0691433 0.109977 0.0807903 -0.00629874 -0.120427 -0.169967 0.056979 0.00508836 -0.0591307 -0.150701 -0.174651 -0.0242907 -0.108675 -0.0947037 -0.0604814 -0.0677698 0.0335552 0.0895772 0.165433 0.158799 0.072897 0.0419707 0.0531053 0.0178767 0.0137386 0.0214635 -0.0255042 -0.0898707 -0.116727 -0.0759121 -0.0493956 0.00027447 -0.00238521 0.00892466 0.00619087 -0.00732437 0.0379869 -0.0234545 0.0115236 0.0404736 -0.0130638 0.0945494 0.165604 0.264667 0.247821 0.10771 0.0731054 0.0857601 0.042476 0.0282908 -0.00181691 -0.0262758 -0.100689 -0.147266 -0.104724 -0.0911643 -0.0303584 -0.0410599 -0.0290995 -0.0357498 -0.0555477 -0.0145641 -0.0952971 -0.0786031 -0.0510212 -0.070218 -0.00702027 0.0416808 0.12266 0.103269 0.0150642 -0.0141588 0.00016292 -0.0464434 -0.0553915 -0.0508476 -0.0377766 -0.0766802 -0.117954 -0.0789361 -0.0605668 0.00880427 0.035287 0.045917 0.0241548 -0.00400487 0.00480513 -0.00127931 0.0592046 -0.00129496 0.0371698 -0.0145475 -0.0202798 0.021645 0.0286998 -0.016482 -0.0317757 0.0554141 -0.247592 0.21416 -0.00221773 -0.0943476 0.28204 -0.359234 0.0439227 0.113715 -0.159327 0.171157 -0.0407038 -0.0847662 0.0547004 -0.017889 -0.0531331 0.000825952 -0.0427251 0.00805659 0.00849446 -0.0382826 -0.0028212 0.0124669 -0.0169432 0.0155319 0.070282 -0.261641 0.19643 -0.0164688 -0.0185785 0.311153 -0.395431 0.00460694 0.0741828 -0.0603176 0.218942 -0.0430167 -0.103802 0.0102857 0.0336068 -0.00882541 0.0214419 -0.0571694 0.0131048 0.0414078 -0.0133214 0.00169625 -0.00920327 -0.039079 0.0440665 0.0914888 -0.246101 0.180978 -0.0505745 0.00254247 0.317088 -0.372559 0.023901 0.0562088 -0.0463921 0.21146 -0.0437999 -0.0848119 0.0136594 0.0549588 0.0530216 -0.0404696 -0.0816419 -0.0565034 0.0394153 -0.126667 -0.182976 -0.0251202 0.0244772 -0.117885 -0.118928 0.0087258 0.0911332 0.0445534 0.0102872 0.0944913 0.09023 0.0519733 0.0355534 0.0485399 0.0450638 0.0202885 0.0148204 0.00609949 0.0126094 0.028222 -0.0639053 -0.0945393 -0.0378683 -0.00523008 -0.146712 -0.180852 -0.00366339 0.0547915 -0.138276 -0.101213 0.0543554 0.13817 0.0633133 -0.00500018 0.114838 0.133997 0.0799354 0.0269836 0.0138853 0.0387405 0.0220739 0.00761729 -0.0119208 0.0772541 0.107688 8.47055e-05 -0.0669257 -0.0215334 0.0392173 -0.115389 -0.168734 -0.017263 0.0350465 -0.107567 -0.10696 0.0230736 0.0900259 0.0176879 -0.00428212 0.0973965 0.103801 0.0373537 -0.00856854 -0.00104488 0.0141026 -0.00947784 -0.0238862 -0.0288866 -0.0136217 -0.0236117 0.0511418 0.0142538 -0.0284353 0.0141812 0.0449566 0.142187 0.0836678 0.0114309 0.00143492 0.0595458 0.164721 0.0957395 0.0275845 -0.0378825 0.0084901 0.0974828 0.0508009 -0.000681207 0.00692929 -0.00380172 0.0714301 0.0585877 0.0113741 -0.0102925 -0.0445982 -0.00201383 -0.0345215 -0.0227756 0.000609495 0.0103119 0.0716122 0.0158642 -0.0158507 -0.0173903 0.017504 0.0985627 0.0322402 -0.00977384 -0.0469293 -0.0242575 0.044215 0.00139487 -0.0311261 0.00116198 -0.0205352 0.0398838 0.0267295 -0.00837962 -0.0095471 -0.0867277 -0.0661893 -0.077783 -0.0113424 -0.0135484 -0.0606445 -0.0246315 -0.064568 -0.0367727 -0.0372892 -0.0672912 -0.016652 -0.0733153 -0.0591474 -0.0512212 -0.0876552 -0.0576809 -0.0973871 -0.0841108 0.0458826 -0.0161064 0.0145117 0.00095407 -0.00788347 -0.0233705 0.00162176 0.0305042 -0.0107287 -0.0432159 0.0181517 0.0614451 0.0835557 0.0847558 0.0598202 0.0266843 0.0834108 0.117831 0.132008 0.105546 0.0266665 0.0837786 0.109782 0.105271 0.0829608 0.0117796 0.0544905 0.0766669 0.0698574 0.0600336 -0.0350757 -0.0291069 -0.0194098 -0.0444563 -0.0399132 -0.0434323 -0.0132501 -0.00597748 0.0056674 0.0177322 -0.0749847 -0.0221414 0.00142254 0.023105 0.0379216 -0.080272 -0.0312604 -0.0122554 0.00308166 0.0264937 -0.0728171 -0.032549 -0.0147519 0.00885447 0.0412023 -0.0320711 -0.0488426 -0.0400448 -0.0391052 0.00114966 -0.0435376 -0.0427372 -0.0472049 -0.0257447 0.0215547 -0.0668848 -0.0489895 -0.0493384 -0.0319398 0.00873125 -0.0653442 -0.0458128 -0.0515642 -0.0418687 -0.00304117 -0.0391048 -0.0199569 -0.0246917 -0.00431181 0.0425416 0.029629 -0.0388267 -0.0734322 0.00253605 0.0229903 0.115746 -0.0509665 -0.12492 0.0817077 0.025083 0.164422 -0.115896 -0.153383 0.142122 -0.0448776 0.137643 -0.164706 -0.068234 0.136316 -0.0414893 0.077668 -0.122799 -0.0161382 0.0454122 -0.0258308 0.0465048 -0.0597433 -0.0931187 0.00855162 0.0187639 0.147757 -0.0946318 -0.16661 0.11404 0.0651761 0.175718 -0.170009 -0.190544 0.193676 0.0223172 0.126754 -0.202722 -0.0855795 0.188271 0.00851931 0.0857525 -0.124319 -0.018683 0.0679316 -0.0035424 0.0732479 -0.0136148 -0.0703061 0.0112931 -0.00430793 0.172326 -0.074726 -0.174686 0.0885485 0.0343067 0.188757 -0.14948 -0.196044 0.154179 -0.0143965 0.12224 -0.173466 -0.0847782 0.149489 -0.016266 0.042654 -0.0980153 -0.0158951 0.0542049 -0.00403554 0.046215 0.00584729 -0.0838537 -0.0638356 0.0516163 -0.0076768 0.134583 0.150573 -0.172341 -0.1389 -0.0584048 -0.129635 0.207941 0.179346 -0.0538726 0.0801963 -0.138885 -0.156432 0.0798567 0.0589082 0.00206705 0.0950363 -0.0148489 -0.0260354 0.00280846 0.0138273 0.0161868 -0.0708298 -0.0332476 0.0893599 -0.0711456 0.111188 0.155114 -0.117387 -0.0729325 -0.124328 -0.1885 0.191788 0.224945 0.0117718 0.0674922 -0.183391 -0.216763 0.0607822 0.0919296 0.0157152 0.0996908 -0.0590206 -0.0644317 -0.00288631 0.0543734 0.0807335 -0.0460929 -0.0648374 0.0355255 -0.0387396 0.166943 0.171833 -0.141255 -0.0892291 -0.112938 -0.156672 0.201612 0.182179 -0.022127 0.0799825 -0.160881 -0.203559 0.0330809 0.0462531 0.02296 0.109477 -0.04603 -0.0585099 -0.0193095 -0.00301987 0.0180619 0.0472985 0.0356345 -0.0233118 -0.0553549 -0.0591388 0.0162252 0.0870084 0.0256875 -0.00761776 -0.0728871 -0.068242 0.0549342 0.0762013 0.0201878 -0.0100213 -0.095345 -0.0513797 0.0370619 -0.00024489 0.0462744 0.00686225 -0.0214139 -0.0239215 -0.00410085 0.0195731 0.0672125 0.0861751 0.0387745 -0.0566408 -0.0863201 0.0025137 0.103892 0.0680752 0.0165894 -0.0854536 -0.102132 0.0396339 0.0970319 0.0608613 -0.0019062 -0.119368 -0.0863211 0.021092 0.040095 0.0622993 0.00908063 -0.0400045 -0.0467218 -0.00545869 0.0267335 0.0717447 0.0990296 0.0753696 -0.0624779 -0.10817 -0.0256925 0.0831086 0.0721391 0.013188 -0.107005 -0.137242 0.00198993 0.0751189 0.0696562 -0.000775276 -0.145084 -0.121172 -0.0125385 0.0491684 0.0820079 -0.00717338 -0.0637598 -0.0643317 0.0146876 0.0611673 0.0676674 0.083101 0.0491818 0.055502 0.084118 0.056467 0.038016 -0.040416 -0.101365 -0.186386 -0.244995 -0.190126 -0.0894076 -0.011183 0.024066 0.0665137 0.0992644 0.0778753 -0.0201645 0.00962495 0.0127679 0.015954 -0.00488143 0.0391217 0.134149 0.161878 0.144399 0.0669663 0.0626028 0.110022 0.0789817 0.0434072 -0.0745592 -0.0976676 -0.210294 -0.293842 -0.220364 -0.13032 -0.0262349 -0.0113297 0.0153595 0.0578241 0.0202254 -0.00342938 0.0177321 0.0211651 0.0152906 -0.0285625 0.011548 0.0972311 0.119526 0.133395 0.0872549 0.0903401 0.13104 0.0922061 0.075091 -0.0115954 -0.0657898 -0.167548 -0.261321 -0.18838 -0.0696035 -0.0175696 0.00736948 0.0172741 0.0359397 0.0319942 0.0248054 0.0385611 0.0142992 -0.018461 -0.0284451 0.0199813 0.0270578 0.0223234 -0.033138 -0.0233793 0.0138146 0.0143846 -0.0146477 -0.0400841 -0.0231115 -0.00061179 -0.00533383 -0.0290786 -0.0314283 -0.0196271 -0.00298311 -0.0150033 -0.0275708 -0.0151823 0.00424449 -0.0346442 -0.0308787 -0.0245103 0.0180655 0.0169152 0.00481226 0.0128436 0.00353685 -0.0709531 -0.0649344 0.0157697 -0.00419672 -0.0388019 -0.0752881 -0.0520659 0.00523349 -0.0365717 -0.0615609 -0.0488726 -0.00578381 -0.0191613 -0.0558334 -0.0593689 -0.00919307 0.0452331 -0.0216136 -0.0236836 -0.0146624 0.0535698 0.0686194 0.0219467 0.0518088 0.0487668 -0.0439096 -0.0524995 0.0525271 0.0492127 -0.00531946 -0.0703761 -0.0502954 0.0458264 -0.00398455 -0.0631901 -0.0585388 -0.016056 -0.00860516 -0.0732631 -0.0950462 -0.0295496 0.0271199 -0.0353977 -0.060043 -0.051002 0.0293327 0.0342794 0.100069 0.118298 0.119253 0.111652 0.0613757 0.0575018 0.0470209 0.0559663 0.0706622 0.0628234 -0.0137074 -0.0058696 0.0103518 -0.0118039 -0.00026333 -0.0631754 -0.0754331 -0.0549089 -0.0396004 -0.037919 -0.0677851 -0.139352 -0.142611 -0.0902743 -0.0514665 0.00695832 -0.00802741 -0.0174579 -0.00529886 0.0056943 -0.0186715 -0.054379 -0.0783757 -0.0528646 -0.0132457 0.0209075 0.0393248 0.00607409 -0.0315967 -0.0140689 0.0212582 0.0581316 0.0775972 0.0473454 -0.00485978 -0.00131454 -0.018423 0.0029393 0.0204669 0.00172826 -0.117454 -0.161419 -0.160511 -0.111155 -0.0567129 -0.135402 -0.21606 -0.242901 -0.1878 -0.111166 0.0296516 0.0154878 -0.0263302 -0.0779637 -0.0624317 0.1674 0.204629 0.216858 0.161315 0.0780546 0.131833 0.13524 0.162443 0.164883 0.114985 -0.0423403 -0.0758683 -0.0588116 -0.0264487 -0.0268924 -0.0707522 -0.0544853 -0.0932022 -0.0852115 -0.0553801 -0.0758199 -0.0429372 -0.0927302 -0.116766 -0.0766945 -0.0909111 -0.122376 -0.0921456 -0.0471155 -0.0397741 -0.0337875 -0.0606635 -0.0370342 -0.00482149 -0.0217998 0.0168344 0.00890783 0.041117 0.0596143 0.0210542 0.0303266 0.076463 0.0567541 0.0540838 0.0437563 0.0524154 0.120204 0.0857318 0.0441473 0.0508682 0.0268405 0.0193275 0.0614042 0.088942 0.064402 0.0408283 0.025448 0.040822 0.0550571 0.023878 -0.0185537 -0.0329421 0.00730266 0.041848 0.0219739 -0.00472476 0.0403828 0.0142975 0.0168915 0.0283644 0.0175205 0.0947443 0.0459309 -0.0118866 0.0122389 -0.0244873 -0.031668 0.0115606 0.0416806 0.0307016 -0.0189442 -0.0393981 -0.00871667 0.0221872 -0.0021287 0.0856261 0.0669231 -0.093281 0.0147305 0.0152318 0.0505269 -0.236983 -0.0367989 0.194484 0.00946634 -0.196895 -0.0333809 0.335197 0.0499044 -0.102348 -0.00968828 0.224157 0.0458369 -0.220597 0.0668736 0.0242308 0.0190708 -0.144658 0.0435834 0.0905156 0.0668298 0.033063 -0.126843 0.00506225 0.0148946 0.0673707 -0.232315 -0.0394949 0.183434 -0.0295506 -0.154969 0.00239647 0.326419 -0.0121824 -0.186304 -0.00483048 0.21761 -0.0381325 -0.313724 -0.0201762 0.0204639 -0.00708468 -0.233249 -0.0342851 0.0452723 0.016024 -0.02708 -0.136477 0.0333967 0.0500614 0.0255832 -0.271002 -0.0142847 0.239919 0.0319065 -0.183128 -0.00693261 0.393254 0.0680683 -0.132585 0.0127392 0.257198 0.0501118 -0.24506 0.00497517 0.124009 0.111871 -0.151454 -0.00688048 0.0483115 -0.13806 -0.227653 -0.183188 -0.100007 -0.0686164 0.0582797 -0.0242423 -0.0774652 -0.10125 -0.0724617 0.127005 0.153172 0.110384 0.00847016 -0.0174211 0.0353354 0.0444367 0.071162 0.0882854 0.0431749 0.0448042 0.0439396 0.0202078 0.0537917 0.0999516 -0.105651 -0.160532 -0.112252 -0.0445538 -0.0514288 0.0900195 0.0451438 -0.00665029 -0.0327764 -0.0437012 0.0760301 0.145239 0.120293 0.0175125 -0.0410687 -0.0348061 0.00247767 0.042429 0.052319 -0.0120793 -0.00508108 0.0124879 -0.00945319 0.0140273 0.0381941 -0.0788715 -0.119679 -0.0666766 -0.016086 -0.0244149 0.0865229 0.0551536 0.0101074 -0.0147652 -0.0148433 0.0615537 0.120465 0.104011 0.0179723 -0.00409864 -0.0631748 -0.0418183 -0.000962573 0.0265145 0.00890914 -0.0346889 -0.0182566 -0.0367555 0.00264491 0.0637772 -0.0742993 -0.0518865 0.00385854 0.0630831 0.0375661 -0.139822 -0.118569 0.0257859 0.123446 0.0709099 -0.165052 -0.11961 0.0316569 0.166598 0.130814 -0.149946 -0.118926 0.00489875 0.138099 0.123146 -0.0847732 -0.0337372 0.0115788 0.0720208 0.0750475 -0.012883 -0.0323441 -0.00563459 0.0420998 0.0244184 -0.103385 -0.10065 0.0185526 0.0973447 0.0643555 -0.130901 -0.0939466 0.0153344 0.122235 0.123104 -0.103461 -0.0772264 -0.00522667 0.0857786 0.114473 -0.0283124 -0.00772988 -0.0131592 0.0165088 0.0620189 0.0485914 0.00756538 0.012743 0.0155321 -0.0571176 -0.0374058 -0.0544116 0.0222155 0.0681378 -0.00778627 -0.0973882 -0.0782867 0.0111939 0.0848102 0.0389528 -0.0840029 -0.0560776 0.0103086 0.0665466 0.0524445 -0.0330196 0.0135301 -0.00290614 -0.00759561 0.00316673 0.0650326 0.094185 0.100039 0.069952 0.0372926 0.0183264 0.0821355 0.101889 0.0647079 0.0428677 0.0234028 0.0516696 0.0568388 0.0336699 0.0219481 -0.0198723 0.0035017 0.00850273 0.0088627 0.0149401 -0.0895894 -0.0444023 -0.0311655 -0.0193978 -0.025145 -0.0227865 0.0113506 0.0215874 -0.0102368 -0.034697 -0.0622959 0.00932142 0.0264547 -0.00516109 -0.0177649 -0.0387544 -0.00644888 -0.0123595 -0.0259986 -0.0318018 -0.0641807 -0.0329298 -0.0379068 -0.0249865 -0.0230583 -0.0905355 -0.044328 -0.0417835 -0.0119344 -0.0237568 0.0171245 0.0677995 0.0851176 0.055719 0.0338506 0.00469584 0.0894903 0.101657 0.0481908 0.0269115 0.0109531 0.05718 0.0355577 -0.000147852 -0.0226453 -0.040047 0.00497587 -0.00308109 -0.000513129 -0.0165073 -0.090638 -0.0242428 -0.0120647 0.00511404 -0.0230409 0.0535821 -0.0313768 -0.120186 -0.112524 -0.0625744 0.0987246 0.00148741 -0.116338 -0.145993 -0.109066 0.134292 0.0790557 -0.0252137 -0.0621831 -0.0442523 0.134004 0.100592 0.0306656 -0.00342901 -0.0011706 0.0793335 0.0670179 0.0159898 -0.00882198 -0.0126685 -0.0387319 -0.0589399 -0.113832 -0.111052 -0.0829862 -0.0294706 -0.0708406 -0.135836 -0.145165 -0.120254 0.0151814 -0.0181578 -0.0752865 -0.0800081 -0.0566559 0.051254 0.0113357 -0.0380102 -0.0370587 -0.0155557 0.0803213 0.0444135 -0.0103808 -0.0193336 0.00198234 -0.0121636 0.122504 0.197387 0.218499 0.139607 -0.0723282 0.0645039 0.188448 0.22738 0.142165 -0.136736 -0.0365566 0.0936047 0.152453 0.104646 -0.167344 -0.113971 -0.0125961 0.0498437 0.0337159 -0.132302 -0.103119 -0.0428124 0.00809329 0.0191113 0.00778073 0.046861 0.0449325 0.00181873 -0.0278222 -0.0196391 0.027099 0.0756765 0.0443426 -0.0234847 -0.013187 -0.0137598 0.0386334 0.0835415 0.0425958 -0.00823112 -0.0338676 -0.030729 0.0713312 0.0646108 -0.0118897 -0.0378755 -0.0666143 0.0328696 0.0549587 0.00557873 0.0298352 0.0259355 -0.00960432 -0.035275 -0.0175347 0.0144104 0.0514946 0.0243032 -0.0364258 -0.00428261 -0.011291 0.0165436 0.0514461 0.020833 0.0102343 -0.0094417 -0.0200879 0.0640447 0.0595588 0.0152159 0.000247366 -0.0248579 0.0588249 0.0769299 0.0072335 0.0173287 0.00585121 -0.0223271 -0.0331053 -0.00196391 0.0252092 0.0533544 0.0236687 -0.0239976 0.0137965 0.0189738 0.0442928 0.0541 0.0239611 0.0209321 0.0186564 0.0231312 0.0693322 0.0466713 0.00608842 0.00211849 -0.00635633 0.0506589 0.0476214 0.00138656 0.0485114 -0.0980964 0.114528 -0.038401 0.00438188 0.0789597 -0.193852 0.206359 -0.0667043 0.00390269 0.101524 -0.262858 0.294518 -0.135296 -0.0165497 0.053033 -0.182064 0.222327 -0.110289 -0.00270389 0.0178047 -0.0875242 0.0843303 -0.0283611 0.00487074 -0.00404006 -0.158464 0.0956424 -0.0455135 0.0418455 0.0382759 -0.237844 0.234359 -0.0527608 0.0473188 0.0539177 -0.306572 0.336579 -0.101114 0.0419022 0.0247573 -0.216648 0.254588 -0.0745584 0.0403682 0.00139547 -0.113148 0.0864832 -0.0262884 -0.00280835 0.0366594 -0.117858 0.116917 -0.0609594 0.0197248 0.0677064 -0.215907 0.245008 -0.0814822 -0.00148088 0.0696973 -0.292056 0.308885 -0.142171 -0.00353464 0.0617173 -0.181291 0.235365 -0.0971579 -0.0178093 0.0341393 -0.0765013 0.0876789 -0.0120967 
bias: 
-0.00705067 -0.000699458 0.00516983 -0.00706068 -0.0150621 -0.00162561 -0.00176195 -0.00154036 -0.00947148 -0.0148992 -0.00762911 0.0151777 0.00250756 -0.0132879 0.018629 -0.00505188 -0.00714442 -0.00662786 -0.00288636 -0.00614913 -0.0123302 -0.0146799 -0.00989533 -0.0224956 0.0136003 -0.00703328 0.000174721 -0.0114774 0.00273072 -0.0106844 0.00218693 -0.00570897 
weights: 
0.0224753 0.0167149 -0.0251364 0.00484639 -0.011902 -0.0153245 -0.0199965 -0.0523369 -0.0298975 -0.00766954 0.031535 -0.071562 -0.0664889 -0.0475555 -0.0345372 0.0481096 0.00131119 -0.034489 -0.0200946 -0.0202604 0.0599229 0.0223647 0.00639159 0.000515307 -0.00538875 0.0346207 0.0292046 0.0320232 0.00680289 0.0223222 0.058506 0.0398304 -0.0149177 -0.039837 -0.0287843 0.0343927 -0.0285297 -0.0400882 -0.057549 -0.00199829 -0.0167983 -0.00579307 -0.0437071 -0.00693089 0.00814171 -0.00858028 -0.019247 -0.00884829 -0.00116166 0.0223554 -0.0352328 -0.0265413 -0.0332967 -0.00386937 -0.00117466 -0.0158042 -0.0116714 -0.00443863 -0.010092 -2.16689e-05 0.018295 0.0253375 0.0195173 0.0161513 0.0201894 0.0075082 0.00595983 0.00967815 0.0189873 0.020114 0.000767347 0.00996266 -0.00108246 0.0214308 0.025552 0.0197044 0.0297901 -0.0023691 -0.0040426 0.0371472 0.0242576 0.00129943 -0.0170484 -0.0122441 -0.0235544 -0.00779156 -0.0368714 -0.0573929 -0.0554187 -0.0288547 0.00754426 -0.043898 -0.0372479 -0.0341304 -0.00151061 0.0261434 0.018257 -0.00212613 0.0219619 0.0395702 0.0266614 0.0445465 -0.00727637 -0.0195967 -0.00996974 0.0313095 -0.0184052 -0.0649738 -0.0460397 -0.0438022 0.00325704 -0.0482057 -0.0726916 -0.0522456 -0.0555629 0.00201915 -0.0344967 -0.0608028 -0.0253977 -0.0530685 0.0360797 -0.00528705 -0.0358744 0.0287998 0.0163284 0.0094961 -0.00865124 -0.00904357 -0.0116532 -0.0144856 -0.00919654 -0.0223087 -0.0186653 -0.00372697 -0.0325709 -0.00941244 -0.00635572 0.000819926 -0.00160075 -0.0152653 -0.00750302 -0.0111573 -0.0125266 -0.00298268 -0.00898247 0.00748146 -0.00154441 -0.0208919 -0.00218328 -0.00101075 0.011416 0.012953 -0.0251782 -0.00690203 -0.0199077 0.00220592 0.0025185 -0.0380227 -0.0231047 -0.0213614 0.00235713 -0.0536024 -0.0559615 -0.0355678 -0.0280241 0.0138232 -0.0211467 -0.0272696 -0.0123897 -0.00699184 0.0319787 -0.010583 0.000258775 0.0128926 -0.0163377 0.0344368 0.0114776 -0.0093893 0.00457887 0.00109757 0.0120742 0.00144086 -0.00840002 -0.0041199 -0.00835217 -0.00080984 -0.00891029 -0.011456 -0.027157 -0.0155973 0.00491752 -0.00113182 0.00845572 -0.0129577 0.00876258 0.00771042 -0.0288886 -0.0036231 -0.0154877 -0.0176643 0.0316832 0.0274288 0.0220002 0.0270055 -0.0049467 0.0177756 0.00833379 0.00197694 -0.00450074 -0.0148701 0.00513076 -0.00595647 -0.0103826 -0.00155544 -0.00671435 0.0161809 0.0127481 0.0158097 0.00222812 0.000799105 0.0200108 0.0158811 0.00766328 0.00266325 0.00814849 -0.0205908 -0.00592391 -0.0323978 -0.0573225 -0.007047 -0.0405067 -0.0531269 -0.0718073 -0.0805512 -0.0543621 -0.048338 -0.0840396 -0.0682768 -0.0786567 -0.0412438 -0.0239271 -0.0549244 -0.0455824 -0.0644975 -0.0497749 -0.0114401 0.0104244 0.00381634 -0.0188727 -0.0226878 0.0299027 0.0257913 0.0388908 0.0411796 0.0579069 0.0370541 0.0321296 0.0209923 0.00523779 0.019164 -0.0158236 -0.00521396 0.0123196 -0.0152782 -0.00357674 0.00940999 0.00892443 0.0363763 0.0135174 0.0161548 0.0347268 0.0413021 0.041815 0.00793013 0.00308836 0.00110048 0.00814497 0.0130081 0.016343 0.018898 0.0172669 0.0102041 0.00396226 0.00200563 0.0202837 0.04525 0.0116866 0.0024869 -0.00606717 0.0290913 0.0427333 0.0225135 0.00632462 -0.00937288 0.0147831 0.0133702 -0.00662482 -0.0388248 -0.0374818 -0.0210948 0.0137026 -0.00799463 0.00111962 0.0248212 0.0445014 0.0090801 -0.0173727 -0.0162499 0.00258272 0.022611 0.0278877 0.00943315 0.0219039 0.0372603 0.068503 0.0195381 -0.0142623 0.00833565 0.0201717 0.0427975 0.00715542 -0.0141002 0.00231761 0.0146035 0.0306518 -0.0409777 -0.00744452 -0.0120639 0.00514145 0.0286032 0.0544822 0.0491864 0.0391367 0.063206 0.0603352 0.0503089 0.04965 0.0431786 0.0255076 0.00466618 -0.004379 -0.00299512 0.0212257 0.000509671 -0.0290398 0.0150481 -0.0208369 -0.0286239 -0.0181279 -0.00404901 0.0367504 0.0272571 -0.0259991 -0.00285698 0.00710832 -0.00908153 -0.0475016 -0.0756023 -0.0703328 -0.0436849 -0.0181815 -0.0938688 -0.0768645 -0.0663441 -0.0522921 0.0107632 -0.014386 -0.0332802 -0.0134135 0.00486125 0.0651761 0.0160428 0.0058446 0.0593503 0.0242524 -0.0227321 0.0479753 0.0162393 0.00231796 0.00394674 0.0733425 0.0438469 0.0264963 0.0187239 -0.016446 0.0208612 -0.0124583 -0.0215197 -0.021528 0.00749435 -0.0235331 -0.0137895 -0.0294491 0.00854165 0.0205014 -0.00952076 -0.0198933 -0.000876455 0.0172815 0.0119077 0.0103882 0.0204501 0.0174097 0.0128662 0.0136836 -0.00966 0.000642336 -0.0164246 -0.00572663 -0.0159965 -0.013718 -0.00957792 -0.0164032 -0.0238363 -0.0181751 0.00381344 -0.00579701 -0.00730491 -0.00985302 -0.00495863 0.0211391 0.00888595 -0.00844488 -0.00211296 0.0202343 -0.00474873 0.000640163 0.00177783 0.0222241 -0.00613368 -0.0142625 -0.0173261 -0.0249895 -0.0248942 -0.0340289 -0.0132976 -0.0180516 -0.0196529 -0.0174531 -0.0188176 -0.0354851 -0.031936 -0.0143215 0.0100792 0.0187848 -0.00911373 -0.00638509 -0.00567008 0.0123042 0.0284567 0.0127491 0.0650606 -0.0132392 0.00470233 0.0306726 0.0189685 -0.0147097 -0.0670008 -0.0428226 -0.0391415 0.0160385 -0.108138 -0.10544 -0.106748 -0.0487081 -0.00335781 -0.0481531 -0.0648781 -0.0471544 -0.0246014 0.0383452 0.040608 -0.0204258 -0.00287662 0.00116462 0.0223556 -0.0249579 -0.0226437 -0.0094436 0.0220567 0.0237504 -0.048288 -0.0445594 -0.0197192 0.0195811 -0.0247752 -0.0192211 -0.0572708 -0.0153151 0.00872772 0.0203287 -0.026594 0.00547925 0.0126065 0.00277548 0.0745897 0.00592505 0.0160143 0.0444019 0.0328715 0.0114317 -0.0289382 -0.0131791 0.0236858 -0.00157932 -0.0206984 -0.0275128 -0.0438443 0.0137686 0.002025 0.00946418 -0.0279201 -0.0189268 -0.0248135 -0.0238185 -0.00932213 -0.015931 -0.0152194 -0.0156516 -0.0145272 0.0330331 0.00640944 -0.00171838 0.0203557 0.00562092 0.0125113 -0.00926375 0.0150714 0.0520707 0.0471746 -0.00483124 0.0359309 0.0267266 0.0307637 0.034896 0.0117021 0.0320867 0.0445766 0.0459898 0.0102002 0.0501576 0.0489979 0.0613606 0.042727 0.0156036 0.0511457 0.0538563 0.0425342 0.0232255 0.0186446 0.0479019 0.0352543 0.0203283 -0.00739557 -0.029981 0.0314432 0.0147212 -0.00930426 0.00759277 -0.0249477 0.0101029 -0.0178042 -0.0150287 -0.0148353 -0.0230161 0.0102063 -0.0084515 -0.0151344 -0.00273354 -0.0126783 -0.0219687 -0.0206608 -0.0203726 0.00308742 -0.00103582 0.012528 0.00462065 -0.0172094 -0.00787229 0.037751 0.0747331 0.078718 0.0545747 0.0293717 0.0137798 0.0324943 0.0289075 0.0367949 0.0288143 0.0143513 0.00822357 -0.022393 -0.00882816 -0.0145966 -0.0234083 -0.0284256 -0.0215523 -0.0359841 -0.030196 -0.0188945 -0.0274741 -0.0161536 0.0160121 0.0215855 0.0388102 0.00180284 0.00893088 0.0177783 0.0127262 0.0464428 0.0312333 0.0252646 0.0261453 0.0305648 0.0528922 0.0260988 0.017774 0.00393302 0.00402283 0.032778 0.0178491 0.00208523 0.00347835 0.0147042 0.0160567 0.047144 0.0626433 0.0254228 0.0111654 0.020898 0.0606432 0.051681 0.015181 -0.00439092 0.0169809 0.0303566 -0.0287408 -0.065137 -0.0585193 -0.0143933 -0.0144197 -0.0496136 -0.0332872 -0.0465116 -0.00210303 0.0459454 -0.00724572 -0.019024 0.0123866 0.00521565 -0.0267566 -0.0524332 -0.0371132 0.000700307 0.0234801 -0.00299323 0.0364238 0.0403524 0.0214321 0.019502 -0.00275364 0.0213313 0.0456583 0.0111163 0.00347108 -0.00545674 -0.00571466 0.00363824 0.00991153 0.0331378 0.0260607 0.0236074 -0.00260701 -0.0143722 0.0133127 -0.0095245 -0.0390474 -0.0370991 0.0264258 0.026434 -0.0263651 -0.0510627 -0.068702 -0.0513861 -0.0476346 -0.0772825 -0.0756547 -0.0953286 -0.0755968 -0.0554876 -0.0497785 -0.0419525 -0.0479095 -0.0185646 -0.00807682 0.0458293 0.0338061 0.00399157 0.0355909 0.0680637 0.0194714 -0.0113066 -0.025324 -0.0197188 0.0217967 -0.000546601 0.0138868 0.0100305 -0.00655936 -0.00936531 0.0121682 0.0324686 0.00995667 0.00716014 -0.00435417 0.0202024 0.0131422 0.00481121 0.00873723 0.00609418 0.0096329 -0.00464334 -0.0251624 -0.0100581 0.01157 0.0505382 0.0192765 0.00698817 0.0134742 0.0340689 0.00495386 -0.00335509 -0.0226675 -0.0120003 -0.00351963 0.0143488 0.0126576 0.012664 0.028736 0.0526311 0.022927 0.00462562 0.00826873 0.0324339 0.0421254 -0.0150978 -0.0194129 -0.0256578 -0.0130835 0.0069526 -0.014728 -0.0123408 -0.00967154 -0.00414437 -0.0265179 -0.00260392 -0.00227167 -0.0225319 -0.0129314 -0.00990979 -0.0186841 -0.00707592 -0.0170109 -0.0161661 0.00543069 -0.0181419 -0.0209593 -0.00781912 -0.0101189 0.0132462 0.0139482 -0.00461646 0.00424671 -0.0101837 0.0336085 0.078036 0.0811656 0.00122728 0.0524788 0.109376 0.03661 0.00291219 -0.0303568 -0.0115667 0.0310875 -0.0216456 -0.0774985 -0.0894645 -0.103171 -0.0201812 -0.0163527 -0.0574773 -0.0603779 -0.0489724 0.0203669 0.0650603 0.0158893 -0.0246307 0.0119003 0.0154721 0.0181388 -0.0161941 -0.0451807 -0.00712054 0.00744745 0.0279238 -0.0061525 -0.00894058 -0.0269183 0.00156505 0.00490579 0.0264549 0.0160753 0.0241354 -0.00774391 -0.00624363 0.0228097 0.0178549 0.0137735 -0.000977764 -0.0252406 -0.0213687 0.0198625 -0.0309877 0.0418775 0.00336709 -0.0246272 -0.0261904 -0.0574118 -0.0064649 -0.00162184 -0.0336533 -0.0674247 -0.0369436 0.0257736 -0.0276378 -0.0853008 -0.053578 -0.0497827 0.0294786 -0.0175524 -0.0591276 -0.0312165 -0.0269531 -0.00193178 -0.00817105 0.00515347 0.0350165 0.00445349 4.8012e-05 0.0180984 -0.00978811 -0.016346 -0.021575 0.00328893 0.00731855 0.0108799 -0.008417 -0.00434632 0.00330157 0.00221378 -0.000135831 -0.017899 -0.0051454 0.00271672 -0.0212452 -0.0041188 0.00822199 0.00922562 0.015323 0.00356714 0.00478806 0.0135863 0.0330614 0.039734 0.00387148 -0.00623622 -0.0208272 0.0548511 0.0264059 -0.0185276 -0.0163672 0.0109723 0.0657642 0.0678462 -0.0402904 -0.018477 -0.0230778 0.0583614 0.00463465 -0.0388882 -0.00356694 0.00956272 0.0309468 0.0455465 -0.0255567 -0.0118302 -0.00402841 0.0615542 0.023896 0.0490146 0.00965857 -0.0048938 -0.0348564 0.041088 0.0286045 -0.0306825 -0.0133355 -0.0176465 0.0287758 -0.0165163 -0.0521876 -0.00393754 0.0251753 0.0459423 -0.0161818 -0.0340853 0.0357177 0.0880585 0.0596945 -0.0342412 -0.0128469 0.084907 0.0243357 -0.00803302 -0.0270481 0.0105038 0.00407281 0.00717963 -0.0595951 -0.0194759 0.0185476 0.0151263 0.00594562 -0.0686274 0.0273457 0.0622704 0.0630076 0.0440841 -0.0234223 0.0408498 0.0499233 0.0587682 0.0304675 -0.0248303 -0.0241839 -0.0361774 -0.0311631 -0.0434039 -0.065884 0.0100954 -0.0120825 0.00792077 0.0107908 0.0166434 0.0256145 0.00540142 0.00874282 0.0124885 0.0264494 -0.0158395 -0.00169513 -0.00866895 0.024229 0.025259 -0.037499 -0.0118228 -0.00175596 0.00953828 0.0232435 -0.0324697 -0.0344867 -0.00265564 -0.00574283 -0.0124263 0.0127774 -0.0129564 0.0127424 -0.00759726 -0.00434454 0.0174161 0.0125836 -0.0211817 -0.0154353 -0.0117267 0.00862959 -0.00877795 -0.0167385 -0.0054212 -0.00307699 0.00497805 -0.00970603 -0.000156873 -0.0143653 0.00320834 -0.0272247 -0.0261056 -0.000333779 -5.32655e-06 0.0180391 -0.00481524 0.0131099 0.0387453 0.0101061 -0.0115337 0.0210592 0.00948901 0.0159671 -0.00190794 -0.0242488 0.028832 0.0307524 0.0577339 0.01267 0.00299531 0.0162508 0.0206487 0.0418573 0.0350808 0.00232415 -0.03127 -0.029825 -0.0134098 -0.00413739 -0.0210251 0.0329575 -0.0128234 -0.00599299 -0.0389806 0.0172296 0.0447425 -0.0168737 0.00798688 0.00637028 0.00664741 0.0248651 -0.0187393 0.0180715 0.042621 -0.000526641 -0.0545014 0.00294137 0.0442758 0.0628758 0.0469942 -0.0770351 -0.0542428 0.0489816 0.0467459 0.00378289 0.00690167 -0.00471933 -0.0454591 -0.0531808 -0.0389719 -0.00309934 -0.0334349 -0.0705743 -0.0593118 -0.0280416 -0.00819872 -0.00194032 -0.0222838 -0.035352 -0.0209415 -0.0302909 -0.0107586 -0.0306617 -0.0483195 -0.0405285 0.0129241 0.0115552 0.00459368 -0.00357342 0.0135428 0.0070798 -0.0085329 0.0197308 0.015653 0.0318375 0.00369913 -0.0429104 -0.0164697 0.000159779 0.0241771 -0.0085127 -0.0463531 -0.0409403 -0.0161747 0.0114814 -0.00517547 -0.0311446 -0.0287589 -0.00923669 0.00313582 0.00491494 -0.00957911 0.010039 0.0377089 0.017574 0.0453739 0.0557726 0.0261469 -0.00995945 -0.0187711 0.0484112 0.0489159 0.02001 -0.00696623 -0.0205778 -0.00190814 0.0128927 0.0109195 0.00256886 0.00206404 -0.0165664 -0.0103323 0.0157875 0.0335552 0.047124 -0.0423707 -0.0154816 0.0384126 0.0540334 0.0585882 0.03401 0.000315594 -0.0346022 -0.0418754 -0.0397358 -0.00994388 -0.0496893 -0.0611445 -0.0700993 -0.0372833 -0.0102639 -0.0569401 -0.0673699 -0.0548354 -0.0120569 -0.0266325 -0.0366271 -0.0331464 -0.0271595 -0.0117395 -0.013398 0.0210957 0.00157917 -0.0166395 -0.0620492 -0.0107981 0.0181305 0.0349817 0.0175103 0.0341827 0.000695847 0.0245409 0.0367991 0.00914942 0.0319415 -0.0520252 0.0171823 0.0330518 0.0400619 0.0351456 -0.0202556 0.0199565 0.0539896 0.0301129 0.00722356 -0.0257022 0.01277 0.0333263 -0.00610735 0.0393216 -0.0283366 -0.0364921 -0.0218606 -0.0191422 -0.0263178 0.00565212 -0.0184092 -0.0159754 -0.031626 0.00472608 -0.0161827 -0.0247363 -0.0290854 -0.030849 -0.00442332 -0.033453 -0.0173745 -0.0370032 -0.0274473 -0.0113177 -0.0189001 0.0247349 0.0408038 0.0245059 0.00814542 -0.0113169 0.0160117 0.0196054 0.0148571 -0.00418693 -0.00386392 0.00395145 0.0105532 0.00996615 -0.0276682 0.0292317 0.0492917 0.0520156 0.0393345 -0.00671679 0.0163926 0.0178307 0.0157978 0.013091 -0.00343017 -0.0288849 -0.0305922 -0.0595086 -0.0257544 -0.0311314 -0.0247764 0.0257938 0.0127418 0.00322171 -0.0198566 -0.0193119 0.0356625 0.0352998 0.0192572 -0.0130182 0.021609 0.0669763 0.0740308 0.0426357 0.00416655 0.0221631 0.0447241 0.0406786 0.0320305 -0.000716484 -0.0384464 -0.0198992 -0.0278481 -0.0030095 -0.034673 0.0105213 0.00306344 0.0126894 -0.0241997 -0.0383737 0.0134703 0.00147609 -0.000221071 -0.00319326 0.0332728 -0.0383656 -0.0186368 -0.000241301 -0.0137502 0.0722761 -0.0627532 -0.0394706 -0.0322291 -0.0125462 0.0918738 -0.0119895 -0.0179789 0.0110777 -0.0450105 0.00077152 -0.000326808 0.00687647 -0.0246482 -0.0104797 0.0247595 -0.00852756 -0.02378 -0.0120302 -0.0249376 -0.0304562 0.0204281 0.00529558 -0.0384571 -0.023256 -0.0230689 0.0111825 0.0232004 0.0441207 -0.0272846 -0.0217562 -0.0442958 0.00335956 0.0348652 -0.0216221 0.0378501 -0.00407572 -0.0133879 -0.0164853 -0.00704911 -0.0133167 0.00190307 -0.0108848 -0.0275313 -0.0269034 -0.0292115 1.99309e-05 0.00135923 -0.0088623 -0.015086 0.0123729 -0.0179174 0.0260579 -0.0243314 -0.0426155 -0.00287369 -0.0187661 -0.00124873 -0.0068673 -0.0303837 0.038798 0.0089913 -0.03256 -0.0971657 -0.0699432 -0.0537643 -3.24811e-05 -0.0626809 -0.0918762 -0.0653787 -0.00527517 -0.0743995 -0.100961 -0.0877206 -0.0569998 -0.0285194 -0.0172943 -0.0433133 -0.0716013 -0.104607 -0.0272247 -0.0148298 -0.0192639 0.000918222 -0.00400594 0.00470603 0.0136722 0.0117101 0.00594747 -0.00677884 0.000695327 -0.008121 -0.00756216 0.0210766 -0.0276639 0.000755821 -0.0149193 -0.0234508 0.0065416 -0.0208054 0.00351954 -0.0173783 -0.0135752 0.0333954 0.0232299 0.0204237 -0.0123279 -0.000265688 0.0573016 0.0355567 0.0293102 0.00635399 -0.0245799 -0.059692 -0.0622605 -0.0491273 -0.032832 -0.0121292 -0.0279984 -0.0461862 -0.0326399 -0.0424297 -0.00769314 0.0306207 0.0179241 -0.00522437 -0.039289 0.0174932 0.0587276 0.0283986 0.0462604 0.0154309 0.0288879 0.0128202 0.014039 0.0371683 0.0468461 0.0226513 0.0139337 0.0150101 0.0503619 0.0304124 0.0150444 0.000259018 0.000350834 0.0278796 -0.00689228 -0.018654 -0.0269505 -0.017672 0.0197505 0.0194901 0.0023491 0.00911109 0.0220125 0.0408783 0.0231648 0.0190592 0.0359155 0.0427855 0.0465071 0.00916953 -0.0723708 -0.0719588 -0.0491885 -0.00273773 -0.0104974 -0.0267913 -0.0511575 -0.0093682 0.0159106 -0.0170388 -0.0509702 -0.0407346 0.0144262 0.0088906 -0.0450768 -0.0101945 0.0524056 0.0537597 0.0398096 0.00777724 0.0507034 0.0935688 0.00764578 -0.0320629 -0.0189883 -0.0713186 -0.0578412 -0.055358 -0.016979 0.019796 -0.0234399 -0.0364378 -0.0668166 -0.0147591 0.051461 0.0216638 -0.010023 -0.0443196 -0.00984815 -0.01096 0.0154604 -0.00219539 -0.033921 -0.0228686 -0.0578562 -0.0466745 0.00202584 -0.00386661 0.00959464 0.0319278 0.0681447 0.0132303 -0.010592 0.0415414 0.0204879 0.0567814 0.00717748 -0.00887781 0.0489733 -0.0122448 0.0149819 -0.0161891 0.000424206 0.0331669 -0.0146641 0.0645183 0.0229796 -0.00744098 0.0655795 -0.0574426 0.00138919 -0.0355849 0.0402177 0.0477797 0.00187319 -0.0155343 -0.0392844 -0.0214787 -0.0170165 -0.0230736 -0.013063 -0.0364701 -0.0336818 -0.00796871 -0.00761805 0.0043861 0.00555088 0.0111266 0.0240973 -0.015271 0.0158906 0.0231306 0.0298761 0.012321 -0.011727 0.0188564 0.0231335 0.0272372 -0.0126725 -0.00818662 -0.0404484 -0.033771 -0.0100758 -0.00979448 0.00745325 -0.00975332 -0.0103669 -0.0038278 0.00353098 -0.00430827 0.00501708 0.0224525 0.0219498 0.0100723 -0.0295005 -0.00374426 0.0224526 -0.00389264 -0.0168139 -0.044715 -0.0140572 0.0360463 0.0322272 -0.00840178 -0.0133502 -0.000286337 -0.00373657 -0.000862079 0.0275514 -0.00665443 0.00906128 0.0155601 0.00276841 0.0253557 -0.00966973 0.0266902 0.013017 0.028197 -0.0114024 -0.00927444 0.048203 0.0626129 0.0536915 -0.00517652 -0.0303537 0.0407049 0.0357335 0.0250174 0.0369497 -0.0257569 -0.0253793 0.032185 0.00190815 0.0289316 -0.0284838 -0.0251916 0.00649713 -0.00300483 0.0194481 -0.0239486 -0.0320074 0.0365178 0.0101614 0.0016734 -0.00600616 -0.0356998 0.0375316 0.038717 0.0186396 0.000112167 -0.0495951 0.00256788 0.00510296 -0.0268867 0.0431625 0.0236331 0.0469656 0.0822988 0.0510457 0.0358214 0.0475177 0.0661154 0.0565102 0.0176742 -0.0338132 -0.053868 -0.0277722 -0.021646 0.0175777 -0.034746 -0.0537991 -0.060752 -0.0451423 -0.0462175 0.00845835 -0.017433 0.0154179 -0.00457519 -0.0130988 -0.0170156 -0.0104306 0.0279998 0.0347603 0.0197745 -0.0399968 -0.0595985 0.00433521 0.0310283 0.0312187 -0.0469185 -0.0390237 -0.0371181 -0.0130099 -0.0155201 -0.0170621 -0.022498 -0.0291338 -0.0301474 -0.000149041 0.00886675 -0.0214668 -0.0386972 0.00449936 0.0122696 0.0288878 0.0302832 0.0101909 0.00968712 0.00392486 6.02472e-05 -0.0180997 -0.0124565 -0.0260855 -0.0238419 -0.00899836 0.00812444 0.000505486 -0.013545 -0.031634 -2.40418e-05 0.00570118 0.00668904 0.0121546 0.000920608 -0.0138474 0.00242557 -0.0152053 0.00026635 0.00527427 0.00306092 0.0561385 -0.0244359 0.0553944 -0.0336778 0.0253921 -0.0312762 -0.0773153 0.0243775 -0.00208829 -0.0126447 -0.0487651 -0.0800026 -0.0226363 -0.0226149 0.000146604 -0.00498697 -0.0379136 -0.0320372 -0.0160387 0.0239406 0.0197829 -0.0308634 -0.0286509 -0.00365309 -0.00237894 -0.00967961 -0.00143369 0.0383465 0.0105549 0.0632507 0.0377945 -0.00770299 -0.039993 0.00399444 0.0449337 -0.0146996 -0.0527018 -0.0899106 -0.0354669 0.0272025 -0.0916026 -0.099343 -0.0719485 -0.0250209 -0.0230913 -0.0560795 -0.0710015 -0.0184516 0.0254183 -0.0224929 0.00255856 0.000710478 -0.00795986 -0.0186005 -0.0196102 -0.0134395 -0.00631902 -0.0178066 -0.0123895 0.00060997 0.0156655 0.0115967 0.0032821 0.0119241 0.00752459 0.0167128 0.013345 0.00365228 0.00300671 0.0159249 0.0123762 0.00424667 0.0142377 0.0256226 -0.0134846 0.0167541 -0.00718904 0.0289942 0.00876709 0.0242472 -0.010699 0.0194913 -0.0176333 -0.0343381 -0.0233228 -0.0412605 -0.0206883 -0.0291228 -0.0214678 -0.0264865 -0.0477774 -0.0349975 -0.0405396 -0.0378495 -0.00496026 -0.0387854 -0.0121367 -0.0234057 -0.0212135 0.00584197 -0.00734625 -0.00355563 -0.00439277 0.00479616 0.0280797 0.0236967 0.00582333 -0.0110247 -0.026732 0.00559824 0.0105973 0.00228927 -0.00222319 0.0106981 0.00478857 0.00407304 0.00443785 0.00122168 -0.011538 0.0167536 -0.00207402 0.0060471 -0.00867205 -0.0102498 -0.0245094 -0.02019 -0.0142915 -0.0130653 -0.00394769 -0.00144323 -0.0152136 -0.00660068 -0.0044561 0.0157153 0.0147085 -0.00404674 -0.007053 -0.00727086 0.0179166 0.0294182 0.0132468 0.00881716 0.0182915 0.0189236 -0.00515126 -0.0116115 -0.00967329 -0.0116842 -0.00536035 -0.0372778 -0.0137389 -0.00538083 -0.0140109 -0.0138088 0.0499884 0.0706369 0.00925918 -0.0263283 0.0217195 0.0723341 0.0254992 -0.0224268 -0.0189756 -0.020225 0.0237533 -0.0217419 -0.0350837 -0.031212 -0.0382963 0.0210052 -0.0191681 -0.0274111 0.00230325 -0.0651808 -0.0226058 0.020335 0.000108133 0.0198095 -0.00188048 -0.0364193 -0.00797672 0.0222516 0.0168904 -0.0219753 -0.0211758 0.0162965 0.038043 0.0362587 0.0425917 -0.0170825 -0.00999059 -0.00975628 -0.0178406 -0.00207695 0.0261561 0.00974715 0.00987431 -0.0273048 -0.0378058 -0.0277239 -0.0155886 0.00550508 0.00549197 -0.0203564 -0.0171512 -0.0274639 -0.0103831 -0.0152032 -0.0286162 -0.00646006 -0.00336373 0.00472576 -0.0106056 -0.0397862 0.0359538 0.0384129 0.0487177 0.0263688 -0.011704 0.0453516 0.0429587 0.0335002 0.022308 0.00860625 -0.0157238 0.0358835 0.0449309 0.0406162 0.0209066 -0.0410747 -0.00361184 0.0265599 0.0158929 -0.0163778 -0.0179817 0.00940432 0.014796 -0.0180374 -0.0266075 -0.011881 0.0166881 0.00023185 0.0117701 0.0293868 -0.0118663 0.0306198 0.000284808 0.0434598 0.0450316 0.000235609 0.0180869 0.0273608 0.0275718 -0.00630674 -0.0390222 -0.00324897 -0.00399232 0.0115758 0.00876246 0.0357519 0.0239752 0.00307698 0.027047 0.0292062 -0.0382162 -0.0360127 -0.00193072 -0.00236258 -0.020753 -0.00143407 -0.00848559 -0.0230688 0.0015247 0.00365519 0.00708466 0.0415456 0.0479268 0.0794538 0.0226468 -0.0459335 -0.0542772 -0.0723252 -0.0404095 -0.0458181 -0.0886282 -0.105861 -0.12649 -0.118375 -0.0778534 -0.0151425 -0.0554537 -0.0519533 -0.0580745 -0.0524166 -0.0249753 -0.0316676 -0.0283742 -0.0330685 0.0130474 0.0263071 0.0119772 -0.00546828 -0.00727416 -0.00749185 -0.0208544 -0.0560222 -0.0170999 0.0173955 0.0388832 -0.0337365 -0.00958837 0.00653556 0.0171057 0.012838 -0.00469238 -0.00373322 -0.00664885 0.0162445 0.00708973 0.0161109 -0.0181485 -0.0196914 0.0180462 0.0341716 0.0143525 0.0157945 0.00615501 0.00684353 -0.016032 0.0145418 -0.00509104 -0.0190497 0.00857631 0.0103785 0.000328021 -0.00556665 -0.0148965 0.00408165 0.018777 0.00730569 -0.000951502 -0.0119271 -0.00650878 0.0205864 0.0159345 -0.00340823 -0.0220639 -0.0206214 0.00517363 0.0129856 0.0123141 -0.0162803 -0.0164886 -0.0372016 0.0200244 -0.0197159 -0.0382387 -0.00322895 0.00419569 0.00974211 0.0106156 0.0144956 0.0151064 0.0255298 0.00291646 0.0137249 -0.00178375 0.0258414 0.0380935 0.0162516 0.0173384 -0.0121404 0.012161 0.024913 -0.0638928 0.00385567 0.0595712 0.0337849 0.0184957 -0.0838558 -0.0635857 0.0534482 0.0126459 -0.0118728 -0.0921732 -0.147344 -0.0889244 -0.12388 -0.0930438 -0.03199 -0.0890218 -0.0791473 -0.0819832 -0.0712028 -0.0120927 -0.0574225 -0.0627691 -0.0236335 -0.0320166 0.0302953 0.0796505 0.0661781 0.0665714 0.00098911 0.00680989 -0.00915065 0.0265813 0.0577342 0.055354 -0.0135794 -0.0197894 -0.0360791 0.0149651 0.0368446 -0.0285159 -0.0314197 -0.0604582 -0.0306198 -0.00152713 0.0482999 0.0148127 -0.0214168 -0.0224881 -0.0316897 0.0238762 0.0160876 0.0151926 0.0201399 -0.0233328 0.0178268 0.0336655 0.0431987 0.0466453 0.0260651 -0.0184678 -0.0161192 0.0142393 0.0110795 0.0350198 -0.0179252 -0.0345882 -0.0258856 -0.0146639 -0.0125637 0.000679056 -0.0256924 -0.00328586 0.00408484 -0.00301551 -0.0811411 0.00783257 0.0209928 0.0557314 0.0282119 -0.00793181 0.0693074 0.0244219 0.0231827 -0.00930562 0.006165 0.0161853 0.0127601 0.0472315 0.00196477 0.000919145 -0.00947356 -0.0222757 0.00849073 0.0247502 -0.0302897 -0.0071802 0.0154595 -0.00515027 0.013081 -0.0246775 -0.0179246 -0.0116266 -0.00538426 -0.0085836 -0.000109487 0.00705221 0.00931661 0.00751157 0.0115612 0.0183723 0.0216709 0.0100909 -0.0166736 -0.00765398 0.0353387 0.0179657 -0.0108937 0.000889038 0.0249464 -0.0187251 -0.00609246 -0.00408377 0.00350556 0.00754689 0.0508619 0.0276498 0.00165351 0.000929689 0.0234594 0.021361 -0.00745836 -0.00554838 0.0235281 0.0285295 0.0142313 0.0692029 0.0849267 0.0805802 0.0227551 0.0283878 0.0457979 0.0225224 0.0504238 0.0393004 0.027039 0.0104392 -0.0173446 -0.00854866 -0.0103761 0.0102989 0.033756 0.0381192 0.03946 0.019304 -0.0158717 0.0164001 0.014261 0.000106877 -0.0209059 -0.0467597 -0.019632 -0.022115 -0.0273982 -0.0404615 -0.0189582 -0.0112926 -0.0141047 -0.0138135 -0.0159224 -0.0233698 -0.00330798 -0.00331036 -0.00532255 -0.0246746 -0.0168445 0.0541386 0.0633224 0.0323028 0.0435679 0.0490242 -0.00716598 0.0024668 0.0178122 0.0397182 -0.0411425 -0.0820649 -0.0473887 0.0119468 0.00202708 -0.0741031 -0.0389206 -0.0757383 -0.0331787 -0.000356234 -0.00762285 -0.0360483 -0.0234167 -0.0162897 0.0562067 0.00520295 0.0237712 0.030373 0.0273038 0.0606226 0.0249612 0.0215727 -0.00487968 0.00230311 -0.00918963 0.0094189 0.0261067 0.0411577 0.0536264 0.0398082 0.0440079 0.0108749 0.019675 0.0439876 0.0547377 0.0512107 0.0374514 0.0299874 -0.0112093 -0.0209016 0.0319996 0.0475241 -0.00878108 0.0332226 0.00842774 -0.00745936 0.0177496 0.0225831 0.0372841 0.0736132 -0.0244418 0.00205539 0.00483881 0.00835536 0.0341101 -0.0306711 0.0182658 -0.0291945 -0.00339427 -0.0199899 0.00100115 0.0298865 -0.0527488 -0.00829231 -0.00249708 -0.0442696 -0.0258028 -0.0332456 -0.0184944 -0.0552006 -0.0186325 -0.0351435 -0.0181858 -0.0102053 -0.000690913 0.0333176 0.0269451 0.0139771 0.0374886 0.0174443 0.0142952 0.0160135 0.00483706 0.0229195 0.0199813 0.00205844 -0.00320584 -0.0170069 0.00654519 0.0409347 0.0192198 0.0496652 0.0288163 0.0078604 -0.0161229 0.0266666 0.0677236 0.00887416 -0.00474722 -0.0312443 0.0437258 0.0581456 0.0269462 0.00178981 -0.032868 0.0327254 0.028798 0.0252837 0.0240664 0.0129838 0.000679284 0.0158851 0.000982477 0.0100703 -0.0122798 -0.0493613 -0.00327185 0.0422486 0.0338658 0.00609617 -0.0164639 -0.0215276 0.0319795 0.0431733 0.0225046 -0.0454349 -0.0174232 0.0164758 0.0327834 0.0049857 -0.038763 -0.019578 0.0123845 0.0382943 0.0185479 -0.00752283 0.00463269 -0.000354224 0.00458068 -0.00306528 0.00335514 0.0441723 0.0362028 0.0183284 0.0071615 -0.0607587 -0.0468435 -0.00580575 -0.0433806 -0.0147903 -0.105527 -0.115989 -0.109448 -0.138861 -0.102258 -0.0538084 -0.0640328 -0.0760402 -0.0809517 -0.0642855 -0.0200542 -0.0316074 -0.042809 -0.00906711 -0.0403893 -0.0146956 -0.0265617 0.0200626 0.000531333 0.000632462 0.0034807 0.00735886 0.0271061 0.00432678 -0.00847946 -0.000104492 0.059566 0.0529502 0.00659872 -0.0236743 -0.0060755 0.0332095 0.0171464 -0.0102469 -0.0076494 0.033283 -0.0145743 -0.00790855 -0.0405485 -0.00321284 -0.012311 -0.0367059 -0.0280474 -0.0150678 -0.0160134 0.00501555 0.0383597 0.0271906 0.00874847 0.0337902 0.0406754 0.0577292 0.00179209 -0.00765014 0.00331521 0.0453985 -0.0093613 -0.0341614 0.0238594 -0.0623726 -0.0436459 0.00801926 -0.00584185 0.0416807 -0.0143662 0.0198417 0.0299441 0.0365924 0.0131296 -0.0100954 0.0228052 0.0400258 0.0175296 0.0199243 0.0181882 -0.028712 -0.0328597 7.73449e-05 -0.00755177 0.0126153 -0.0366053 -0.046243 -0.0396392 -0.0240131 -0.0156518 -0.00120837 -0.0159033 0.00925111 0.00083415 0.00691695 0.0356038 0.000721187 -0.0418705 0.0432419 0.00794586 0.0266834 -0.0417938 -0.0623827 0.0078562 -0.0351855 -0.0103727 -0.0297101 0.0303109 0.00931904 -0.00730185 -0.0551715 0.0273836 0.014712 -0.0213377 0.0162106 -0.0557322 0.0139674 -0.0153267 -0.000295458 0.00476096 -0.0312487 -0.0113999 -0.0141375 -0.0165512 0.0492041 0.0214098 0.00624033 -0.00554085 -0.0119674 -0.0131359 0.0290635 0.0139054 0.00390975 -0.010226 -0.0461756 -0.00806984 -0.0160466 -0.0212789 -0.0087711 -0.00357672 -0.0713569 -0.0704842 -0.00657939 -0.00667209 0.0294292 0.0513906 0.0382772 0.0187561 -0.00535373 0.00433756 0.00340267 0.00690644 0.0099564 -0.0237632 0.000667243 -0.00508324 0.00507506 -0.00536112 -0.0188554 0.00380962 -0.0043934 -0.0187346 -0.0154781 -0.0110183 -0.0198407 0.0175913 -0.00842746 0.0110981 0.000634848 -0.0115597 -0.0329253 -0.0148987 0.00228918 0.00667669 -0.0146608 -0.0275495 -0.0068653 0.0116457 -0.0148415 -0.017257 -0.0153008 0.0335081 0.0188816 0.0113743 -0.0271195 0.00815227 0.00282082 -0.0278195 -0.00717132 -0.00188442 0.0159829 -0.00284392 -0.022645 -0.0158081 -0.00379277 -0.0504437 -0.056223 -0.0200397 -0.00181383 0.0169105 0.0111638 -0.000476567 -0.0154224 0.0128599 0.01326 0.0170162 0.00359292 -0.0144605 0.00695647 -0.00385163 0.00626466 0.00126657 -0.0175499 -0.0161512 -0.000598684 0.00207963 -0.00788742 0.00266476 -0.00505742 0.00841339 0.00624668 -0.0117713 -0.0271052 -0.0419482 -0.0191337 -0.00657658 -0.00219459 0.00732309 -0.014106 -0.00502089 0.0209853 0.0370122 0.00774032 -0.012253 0.0192641 0.0153759 0.0344479 5.5862e-05 -0.0194348 -0.0136063 -0.000777803 0.00871544 0.0133055 0.00164363 -0.0114858 -0.024999 0.00654135 -0.010665 -0.00412181 0.0289628 0.0530487 -0.0177056 -0.0279476 0.0220565 0.0107401 0.0803544 -0.00464398 -0.0168309 -0.0265123 -0.0230008 -0.0106937 -0.0551474 -0.059604 -0.0127817 -0.0299121 -0.0354017 -0.013839 -0.0325156 -0.0103396 0.022744 0.00515057 -0.00987335 -0.00649751 0.0097459 -0.0221994 -0.00245898 0.0190154 0.0115052 0.0103863 0.0167448 0.0538807 0.0162979 -0.0124826 -0.0201093 0.00940444 0.020912 0.0345784 -0.021363 -0.0287149 -0.0184714 0.00245062 0.0153496 2.83563e-05 -0.00335498 -0.000793566 -0.0122769 0.00295426 -0.000145033 0.0120083 0.0377605 0.024285 0.0372544 0.0326012 0.0295374 0.0501794 0.00726472 0.0170006 0.00319892 0.0267805 0.0304993 -0.0221152 -0.0162627 -0.00563013 0.0185289 0.0118852 -0.035248 -0.0175493 -0.00512265 0.0226519 0.00180944 0.0344569 0.0708678 0.0709755 0.0989731 0.0664286 0.0923196 0.0834886 0.0375143 0.0419668 0.0203914 0.0590289 0.0451265 -0.0230447 -0.0254846 -0.0671047 0.00867544 -0.0624294 -0.0789221 -0.0368371 -0.0473138 -0.0289468 -0.0423711 -0.0400194 -0.0386249 -0.0447676 -0.00252073 0.0110248 0.00962921 0.0301381 -0.0205906 0.0412701 0.0835861 0.0605314 0.0348959 -0.0481573 0.051332 0.0359904 -0.0181806 -0.0415585 -0.00820117 0.0142829 -0.0191219 -0.0333765 -0.036764 0.0180895 -0.0319689 0.00142518 0.0309857 0.00843242 -0.00366638 -0.0534135 -0.0380654 0.00108128 -0.0104295 0.032807 -0.0210374 0.0129251 0.07368 0.0435067 -0.00462288 0.0350383 0.0638082 0.0320316 0.0551411 -0.0114793 0.0223968 0.0406187 0.019296 0.015971 0.0192123 0.06207 -0.0185923 -0.0411398 -0.0290559 0.00526768 -0.0186944 0.0010865 -0.0109331 0.0150781 -0.000979875 -0.00833583 0.00834456 0.0383092 0.032966 0.0416083 -0.0124803 0.0357017 0.0297976 0.0269762 0.0246649 0.0450408 0.0399631 -0.0175931 0.0104229 -0.00845785 -0.00279133 0.00426647 -0.0118253 0.0194348 -0.0226168 0.0028438 -0.033627 -0.0250677 -0.0431477 -0.0202694 -0.0205915 -0.0203848 -0.0102826 -0.0156401 0.000154456 -0.00647185 0.0346247 0.0136583 -0.00792613 0.0234151 -0.0167702 0.0322221 -0.00972106 -0.0239575 0.0128263 -0.0131956 0.0442599 0.00754616 0.0129262 0.0146564 0.0385246 0.0109971 -0.0162044 -0.0391182 -0.0398363 -0.0180391 -0.0311865 -0.022424 -0.0337075 -0.0321267 -0.0189315 -0.00452058 0.015691 -0.0258988 -0.0148259 0.00907869 0.0103125 0.00350477 -0.0252622 -0.0115921 0.0166153 -0.00801312 0.00596838 0.0268714 0.0143866 -0.00153432 -0.0407865 -0.0436057 0.0122745 -0.0146831 -0.0424657 -0.0801585 -0.0166309 -0.0337504 -0.00346145 -0.00757069 -0.0219742 -0.0138152 -0.027434 0.0347462 0.0267586 0.0196599 0.0200343 -0.00323619 0.0397659 0.00461506 -0.00688028 -0.0309528 0.0183862 0.00357702 0.0247327 -0.0464186 0.00857453 -0.0134249 0.00575471 -0.0237766 -0.0182446 0.0496753 0.0113934 -0.00277858 -0.0018327 0.0408727 0.0340774 -0.000731167 0.0126465 0.0338609 0.00225919 -0.0167171 -0.0265073 -0.0216563 0.022831 0.0138993 0.00550839 0.00391582 -0.0449916 -0.0160538 -0.0178446 -0.00506738 -0.0117223 0.000313269 -0.006871 -0.00121137 0.0113295 -0.017223 -0.0373258 0.00748471 0.00885286 0.0161693 -0.0130883 -0.0319455 0.0282756 0.0243327 -0.0108387 -0.0216389 0.0106546 0.00359528 -0.0146506 -0.00336996 -0.0108623 6.61179e-06 0.0137776 -0.0639005 -0.0344699 0.0159137 0.0196062 0.0136332 0.0866418 0.061503 -0.0237386 -0.0851499 0.0985223 0.0864001 0.00510508 -0.0673142 -0.0627388 0.0216036 -0.0200557 -0.0722068 -0.0559916 -0.0108594 -0.056503 -0.0342605 -0.0195124 -0.0220547 -0.0172923 -0.0378663 -0.0604193 -0.0398404 -0.0167547 0.0441298 -0.01057 0.0110526 -0.00305402 -0.00139419 0.0298022 0.0509897 0.0332306 -0.0175348 -0.00356117 0.0147491 0.0312155 0.020592 -0.0509599 -0.0244136 -0.0269521 -0.0345339 -0.0378392 -0.0428688 -0.00212223 0.00448224 0.0352262 0.0259778 -0.00286289 -0.0415788 -0.0562406 -0.00537439 -0.0271973 -0.0290672 -0.030435 -0.011438 -0.0156647 -0.00964891 -0.029093 0.00197325 -0.0127227 0.0235849 0.0276016 -0.0339817 -0.00873441 -0.00805195 0.0599651 0.0571313 0.0195983 -0.00633285 0.00521739 -0.0255669 2.96208e-05 0.0115244 0.0146996 -0.0299181 0.0067157 0.0199567 0.0079374 0.00170749 -0.0227991 -0.00752842 -0.00127467 -0.0279493 -0.00598264 -0.0271516 -0.0375281 -0.0439198 -0.0407951 -0.015303 -0.0285988 -0.0336163 -0.0246154 -0.0197613 0.025441 -0.00102698 0.0314802 0.0473135 0.0429582 0.017912 0.0149817 0.152448 0.066776 0.0112289 -0.0202373 -0.0209894 0.0991625 -0.0160122 -0.0698358 -0.00857843 -0.0332315 0.00200145 0.0172206 -0.0362576 0.00707223 -0.0431374 -0.0509142 0.0196263 -0.00372121 0.00363679 0.00204501 -0.00863578 0.0119383 -0.0139546 -0.0288753 -0.0512429 0.00373233 -0.00610043 0.037993 0.0325531 0.0206224 -0.0280125 -0.0147526 -0.00329664 0.0307324 0.0267522 -0.00699482 0.0142273 -0.0277331 -0.042578 -0.01206 0.0161775 0.0558426 0.0148478 0.0320323 0.00481795 0.0140665 -0.0727946 -0.109876 -0.0512314 -0.0088702 0.00926441 -0.0641853 -0.00893521 -0.0174212 -0.0382376 -0.0627707 -0.0162558 0.0604896 -0.0111421 -0.00781482 0.00790255 0.0449625 0.00361983 -0.0101031 0.0050114 0.0147468 -0.0495875 -0.0437576 0.0510059 -0.0219226 -0.00622655 0.0115854 0.000133927 0.0366743 0.0346151 -0.00192633 -0.00796453 -0.0182784 0.00455873 -0.00182431 -0.0157841 -0.00735818 -0.0171321 0.00908496 0.0256649 0.00274358 -0.0255408 -0.0194019 0.0132596 0.0211249 -0.0317198 -0.0234441 -0.0277983 -0.00709583 0.00861708 0.0750761 0.0714582 0.0727084 0.0426981 0.00216515 0.0699429 0.077956 0.0813804 0.0319261 -0.0108679 0.0168817 0.0316841 0.0251036 -0.0210217 -0.0540574 -0.0655339 -0.0677204 -0.0472101 -0.0534259 -0.0699703 -0.0476478 -0.0784153 -0.0612079 -0.0548779 -0.0473382 0.00936183 -0.00330522 0.00133053 -0.00192687 0.00249483 -0.0141126 -0.0238116 -0.000796241 -0.0355717 0.00100021 -0.0135732 -0.0239015 -0.00482896 -0.0169872 0.0360253 -0.0263515 -0.0340693 -0.0179017 0.0123574 0.0144776 -0.0169195 -0.0419988 -0.0170889 -0.00414579 0.00958627 -0.0276253 -0.0203348 -0.00629312 0.0256464 0.0229046 -0.00803034 -0.0205828 -0.00197786 -0.00625298 0.0214273 0.018967 0.0296079 0.0167867 -0.00202096 0.0350644 0.101227 0.0865145 0.071328 0.0144152 0.0282412 0.0766672 0.0128084 -0.0120017 0.02483 -0.00296396 -0.0472008 -0.0241369 -0.0691755 -0.0627723 -0.0258537 -0.0514744 -0.0763407 -0.109607 -0.0834993 -0.0492897 0.0022627 -0.0755031 -0.0760722 -0.0555743 -0.0347793 0.0405539 0.00616722 0.0221697 0.00336003 -0.0163313 0.0501957 0.054616 0.0232597 0.0169833 0.0152551 -0.00504264 0.0179311 0.0403856 0.021074 0.00728335 0.0150416 0.0269778 0.09199 0.0547234 0.00403865 -0.00391747 0.0675945 0.0584455 0.0485214 -0.0190235 0.0327428 0.0620088 0.0304635 -0.0134143 0.0149643 -0.0209363 -0.0225507 -0.0326677 -0.0308715 -0.013678 -0.0138539 -0.0168047 -0.0177131 -0.00426886 0.00421783 0.0121958 -0.0130566 -0.0394679 -0.0220404 -0.0169103 -0.0129091 -0.00382337 -0.0144777 -0.0162893 -0.0100444 0.0147957 -0.0241631 -0.0138177 -0.00536326 0.00379364 -0.00220765 -0.0233833 -0.029183 -0.00462785 -0.00779372 0.0292943 -0.0147119 -0.0246773 0.0139789 0.0357482 0.0168901 -0.0194837 0.0140614 0.00829868 0.0496791 -0.00977584 -0.00644369 0.0103064 0.00577831 0.0348582 -0.0201262 0.0328941 -0.0011842 -0.00526941 -0.000923887 -0.0223463 -0.00576787 -0.0109466 -0.0753552 0.0143346 0.069741 0.0455989 0.0326927 0.00398773 -0.0539196 0.0733195 0.0530612 0.0247179 -0.0349903 -0.0170206 0.0520634 0.00413667 0.0212758 -0.0161823 0.0400073 0.0249516 -0.0010502 -0.0114767 0.00990495 0.0350102 0.0173552 -0.0423155 -0.037995 -0.0022855 0.0148694 -0.00619617 -0.00749927 -0.00549027 -0.00326922 -0.0201325 -0.0238825 -0.0388115 -0.0119515 -0.00673404 -0.00760927 0.0266162 0.0237767 0.0494999 0.0376042 0.0248984 0.024269 0.0263349 0.0513881 0.0386048 0.0230678 0.0167797 0.0248651 0.0399081 0.0121563 -0.00647346 -0.0226864 -0.0145948 -0.0342791 -0.0318025 -0.0205302 -0.0187109 -0.032741 -0.0544895 -0.0677789 -0.0402056 0.014308 -0.0528912 -0.0633074 -0.0363331 -0.0251353 0.039569 -0.0307519 -0.0209516 -0.00290798 -0.000607073 0.0336843 -0.00688849 0.00582606 0.0285153 0.0164983 -0.0272195 -0.0168147 -0.013131 -0.0226701 -0.0269248 -0.0039335 0.00253705 -0.0164761 -0.030289 -0.0419517 0.0187688 -0.00104516 -0.0188914 -0.0275018 -0.0433219 0.0363059 0.0265597 -0.0109428 -0.0381292 -0.0502682 -0.0018914 -0.0119876 0.00121495 -0.023176 -0.0616576 -0.0320971 -0.0324066 -0.011313 0.0134764 -0.00453379 -0.0195695 -0.0139624 -0.00557547 0.00923667 -0.00485374 -0.0068387 0.0190198 0.0243202 0.0243275 0.0200967 -0.00877774 0.00201956 0.0263217 0.0226723 0.0232253 0.0111246 0.00478057 0.0194353 0.0118524 0.00970969 -0.014062 -0.00105166 0.0109711 -0.018694 -0.0678182 0.0360719 0.00361971 -0.0171087 -0.051269 -0.0539593 0.0385467 -0.0189881 0.00424606 -0.000839897 0.00276451 0.0738469 -0.0445577 -0.0130537 -0.00627882 0.00952419 0.0297677 -0.0354894 -0.0212626 -0.00953104 -0.0125654 -0.0498149 -0.0437153 0.000541721 0.0264337 -0.00901867 -0.0466214 -0.0643628 -0.0416663 -0.0358145 -0.0487339 0.0148082 -0.0243108 -0.0162328 0.00192768 0.00592317 0.054256 0.0383566 0.0592679 0.022424 0.0111657 0.00993654 -0.0399236 -0.0114466 -0.00606408 0.0176296 -0.00498883 -0.0170823 -0.0274281 -0.0514166 -0.0352934 -0.00236421 0.00513861 -0.0134492 -0.0350076 -0.0316852 0.00807482 -0.00123826 0.00108837 -0.0210757 -0.00993498 0.00944251 0.0120322 0.0182707 -0.0079012 0.0127092 0.0191962 0.0218583 0.00718648 0.012603 0.0163798 -0.0030711 -0.016075 0.00275515 0.00534764 -0.00219933 -4.64231e-05 -0.0103924 -0.004474 0.0132005 0.0292614 -0.00226632 -0.00231478 0.0265823 0.0330268 0.0275669 0.0102299 -0.00950848 0.00749696 -0.0299197 0.00753976 -0.00510271 -0.0133465 -0.00386759 -0.0317005 -0.0144078 -0.012155 -0.0204821 -0.00452855 -0.0171523 -0.00134384 -0.0114769 -0.0177979 -0.0247475 0.0188525 -0.00263295 0.00350407 0.0131539 0.0412584 0.0356439 0.00457533 -0.0195228 -0.0098069 0.0136936 -0.0170628 -0.0702556 -0.00462897 -0.0157601 0.0183131 0.0119604 0.0291137 -0.0649574 -0.0589127 -0.0677471 -0.0778511 -0.0498735 -0.0455973 -0.0882578 -0.0928337 -0.102762 -0.0535611 0.0756816 -0.000706174 -0.0532782 -0.0768212 -0.00855994 0.0512213 0.052201 0.011968 -0.0161192 -0.0165762 0.0223493 0.0627288 0.00384264 -0.00280671 -0.00839244 -0.00425422 -0.0478833 -0.0205021 -0.0063687 0.00186942 -0.0301748 -0.0216874 0.0320686 0.0955616 0.0670469 0.00949931 0.0382419 0.0596748 0.0594553 0.00785191 0.0700601 0.0665571 0.0371521 0.0124749 -0.00253765 0.00223554 -0.0507262 -0.0554881 -0.0382719 0.0300424 -0.0158183 -0.0371226 -0.0274556 -0.00162801 0.00078333 -0.0265608 -0.0422835 -0.0416149 -0.0235708 -0.0185977 -0.0118839 0.0125076 0.0257386 0.0193885 0.015604 -0.0136595 0.00867365 0.0191334 0.0169472 0.00944333 -0.0010696 0.000185098 0.0166574 -0.00276261 -0.00822377 -3.16225e-05 -0.0363575 -0.0106902 -0.0129328 -0.00538493 -0.0323014 -0.0699073 -0.0314667 -0.0195283 -0.00452905 -0.00058931 0.00457329 0.0461937 0.0198182 0.0158228 -0.00379313 0.0106366 0.0179895 -0.00240125 -0.0113512 0.00613071 0.0263259 0.0120184 -0.00714538 0.000413542 -0.0773125 -0.00666637 0.0187888 0.0157196 -0.052254 -0.0404788 -0.0569163 0.00530948 -0.0177706 -0.038857 -0.00744361 -0.0311819 -0.0257939 -0.0156272 -0.0353061 0.103062 0.0448917 -0.00476333 -0.0197135 -0.0455285 0.0761786 0.000828637 -0.038802 -0.0338991 0.00610085 -0.0283429 -0.039339 -0.0252222 -0.0366571 -0.0031424 -0.018098 -0.0876697 -0.0784597 -0.0711314 -0.0248241 0.00334749 -0.0485763 -0.0839697 -0.0513476 -0.0366501 0.0140191 0.0509818 0.0490611 0.0121612 -0.0141649 0.0279403 0.0855035 0.0701149 0.0486592 0.0588614 -0.0321801 -0.0115888 -0.0109477 -0.0113191 -0.00181974 -0.044232 -0.046387 -0.0343105 -0.0426545 -0.0182499 0.0170075 -0.0480623 -0.0327667 -0.00668029 -0.00792188 0.0516106 0.00791425 -0.00309293 -0.00592933 -0.0360156 0.0355042 0.0062771 0.0101089 -0.00599986 0.008768 -0.000391049 -0.0256394 -0.0129954 -0.015313 -0.00476663 0.00930083 0.00764337 0.023103 -0.00457745 -0.00813878 0.00541315 -0.0386971 0.00271899 0.0122248 0.0080831 0.0286473 0.044732 0.0787852 0.0211862 -0.0171052 0.0158863 0.0252578 0.0320075 0.00459281 0.0225797 -0.0191469 -0.00147041 0.0136575 0.0199113 -0.0287393 0.00593715 0.0312109 0.0413699 0.00345777 -0.031892 0.0411632 0.0462024 0.0202789 -0.0189519 -0.0395158 0.0412427 0.00962543 -0.0184498 -0.0256486 -0.0146986 -0.00499363 -0.0476705 -0.0533415 -0.0365731 -0.0436576 -0.0422631 -0.0560624 -0.0192549 0.00667715 0.00304873 -0.0188799 -0.0583049 -0.0706943 -0.0392019 -0.0496221 0.0531774 0.0207575 0.00209876 -0.0282373 -0.0255147 0.0444041 0.0358219 0.0321514 0.0208451 0.0214233 -0.00685912 -0.0244731 -0.0191194 0.0122228 0.0274359 0.0325858 0.0231157 0.0189535 -0.00371122 0.0293566 0.0227927 0.0122643 0.0265099 0.0157768 0.0138003 0.0442513 0.0278997 0.0256559 0.0137354 0.0164729 0.0197367 0.0076982 0.00966733 -0.00507338 0.0184132 -0.0132261 -0.0161127 -0.0255731 -0.0241498 0.0084322 0.0915949 0.0262756 -0.0288681 -0.0254484 0.0112181 0.0232842 0.00603141 -0.0118093 0.0265502 0.0804917 0.0239093 0.0376577 0.0961113 0.0982892 0.102599 0.0519254 0.0236552 0.0854442 0.0784021 0.0229053 -0.00711702 -0.0342728 -0.0334983 -0.0357436 0.00832999 -0.0289349 -0.0719977 -0.0741284 -0.0221827 -0.00597469 -0.0413557 -0.0658808 -0.0525945 -0.0435089 -0.00145066 0.00616874 0.0112948 0.00602867 -0.00740034 -2.41879e-05 0.020357 0.00904881 0.0193048 0.0193735 0.0102682 0.025935 -0.0286048 -0.0269209 -0.0305075 -0.0340568 0.0510208 -0.0164235 0.0389578 0.00970623 0.0614973 0.0385216 -0.0533676 0.0318059 0.0146797 0.0516999 0.0411195 0.00407542 0.0162714 0.00587939 0.0194748 0.063198 0.00362745 -0.00749098 -0.00624919 -0.0203337 0.0419218 -0.00632913 0.0479437 -0.0433255 -0.0285886 0.0120483 -0.0155251 0.0211949 -0.0047993 0.00565123 -0.00978499 -0.0535016 -0.0572148 -0.0121544 0.00258927 0.0125673 -0.00567598 -0.0222327 0.00456429 0.0115884 0.0211434 0.0417494 0.0152776 0.0308672 -0.00858223 -0.0108823 0.0126041 0.00289987 0.0124532 -0.000622814 -0.021607 -0.0523868 -0.0525484 -0.0535175 -0.0252676 -0.0483782 -0.0609194 -0.0219605 0.000822397 0.0161542 -0.0284545 -0.0369643 0.0161473 0.0362151 0.0232217 0.0179903 -0.014207 4.90055e-05 0.0103081 0.00988824 -0.00599453 -0.0225066 -0.0286946 0.00413199 -0.0110472 -0.0449077 -0.0542408 -0.014735 -0.00261377 -0.0156664 -0.0260124 -0.0470577 -0.0282713 -0.0177108 -0.03366 0.00252009 -0.0229846 -0.0282572 -0.0165925 -0.034345 -0.0118326 -0.0222152 -0.00203091 -0.0232469 -0.0309715 -0.00362921 0.000943539 0.00629136 -0.0172816 -0.0207953 -0.0836077 -0.00671168 -0.0232758 -0.00509166 -0.0293886 -0.0786988 -0.0682506 -0.0460389 -0.0275833 -0.021546 -0.0402186 -0.069794 -0.0947582 -0.0509761 -0.02999 0.0457294 0.00820933 -0.0336738 -0.0280976 -0.0409546 0.028879 0.00633601 0.0329507 -0.0399066 -0.0118051 0.00779611 0.00307335 0.00767606 -0.0364009 -0.018961 0.0139274 0.0128806 0.00565373 -0.017372 -0.00445261 0.00586883 0.0404809 -0.0349177 -0.0144679 -0.0279397 0.0211487 0.0472147 -0.0181144 -0.0364074 -0.0241457 0.0268242 0.0125561 0.0106179 -0.0267586 -0.00582913 -0.00955836 0.0219775 0.00274531 0.0317094 0.0236065 0.0298368 0.0770618 0.00862218 -0.00639098 -0.00240418 0.0531991 0.0477597 0.00815685 -0.0195661 -0.0316604 -0.000334791 0.0149614 0.0260337 0.0235602 -0.0345558 0.00692674 0.0506619 0.0363827 0.00721661 -0.0285848 -0.0504264 -0.0158646 0.00209095 0.0284545 0.0254439 -0.0210348 -0.0213922 0.0068747 0.01012 0.0200851 0.0058023 0.0179002 0.00135075 0.00736885 -0.00865599 0.00518155 0.000798856 -0.0153341 -0.00735881 -0.0259693 0.0144055 0.0140037 -0.0105654 -0.0272354 -0.0149395 -0.0766758 0.00919486 0.0523884 0.0428328 0.00796537 -0.0241372 0.0314025 0.022387 0.0214046 -0.0161617 0.0022977 0.0365487 0.0278813 0.0474998 0.0304677 -0.0146852 0.032794 0.0263959 0.0513998 0.0108998 -0.0345136 -0.00284864 -0.021655 -0.0471742 0.0237682 -0.00322331 0.0485154 0.0276971 -0.0129002 0.000660993 0.0325674 0.0335758 0.0366624 -0.043018 -0.0474002 -0.0448965 -0.0158188 -0.027999 -0.0433725 -0.0116897 -0.0135108 -0.0406858 -0.0136083 0.0153528 -0.023848 -0.0101511 0.00598154 0.0221619 0.00469298 0.00511416 0.00756175 -0.0632168 -0.070977 -0.0413161 -0.0154451 -0.0124146 -0.0480724 -0.0590033 -0.0431232 0.00420953 -0.0304333 -0.0480366 -0.034338 -0.0167451 0.0306806 -0.0362832 -0.0384025 -0.0197103 0.0156129 0.0588769 -0.0306758 -0.0436385 -0.0374821 0.0097595 0.0484092 -0.0104709 0.00827359 0.0132631 -0.032016 -0.0113837 -0.014662 1.78765e-05 0.000394471 -0.0282027 -0.0209432 0.00478507 0.020887 -0.00647489 -0.02585 -0.0114206 0.0239226 0.0229802 -0.0193105 -0.036713 0.00406313 0.0481685 0.00879754 0.0188079 -0.0276462 0.0120185 0.0167847 -0.0276951 -0.0290163 -0.0035393 0.0221834 0.0433236 -0.000189719 -0.0315219 -0.00164003 0.0128364 0.055771 0.0463344 -0.000613383 -0.0250745 -0.00125586 0.0382534 0.040439 0.00449728 -0.0446311 -0.0205594 0.000956323 0.0146177 0.0178224 -0.00287982 0.00800899 0.0299464 0.00179801 -0.0275994 -0.0325908 -0.0158012 0.0249661 -0.0151039 -0.0371594 -0.0352138 -0.0414774 0.0506243 0.00543232 -0.0235593 -0.0183387 -0.0062855 0.0160579 -0.023759 -0.0324928 -0.00866626 0.0105761 0.00139431 -0.00152521 -0.00704453 0.0183322 0.0268322 0.0166588 0.0032117 0.013488 0.0187041 -0.00517582 0.0484973 -0.0335171 0.0176788 0.0167037 -0.00218361 0.020543 -0.0829938 -0.0150046 0.0275509 0.0119207 -0.0127425 -0.0837521 -0.00614682 0.025025 -0.0113212 -0.0184477 0.00770604 0.0467289 0.0220208 0.0257336 -0.0277852 -0.00784368 0.00684274 -0.0052491 -0.0178825 -0.00111151 0.0170769 0.0227958 -0.00456435 -0.052895 0.0390292 0.0124095 -0.0154348 -0.0130574 0.00403569 0.0654472 0.0420546 -0.0155729 -0.0168712 0.0152706 -0.015373 -0.00164552 0.00793399 -0.00475406 0.0452335 0.016692 -0.0698637 -0.111783 -0.0420224 0.0683734 -0.0574827 -0.108052 -0.122696 -0.0296205 0.0576639 -0.0813556 -0.114677 -0.102008 -0.0493757 0.0432364 -0.0594562 -0.0618693 -0.0463332 -0.0141517 0.0330789 -0.00979783 0.0127455 0.0286717 0.0274841 0.0479912 -0.0237232 -0.0521923 -0.0165445 -0.00575222 0.00834607 -0.0267826 -0.0398319 0.000597773 0.0333624 0.0418631 -0.00494679 -0.0138518 0.00329963 0.0451185 0.046502 -0.0202152 -0.0178779 0.000610358 0.0207145 0.0161462 0.00129094 -0.0147084 -0.0194599 -0.0374761 -0.0341965 -0.00880904 0.00191989 -0.038829 -0.0408487 -0.0554993 0.0278752 0.00138974 -0.0222667 -0.0532002 -0.0480822 0.0264273 -0.0213312 -0.0635419 -0.0416396 -0.00320548 -0.0140758 -0.0573008 -0.040055 0.00377047 0.0566083 -0.0159603 -0.0469164 0.0119166 0.053578 0.0477836 -0.0420913 -0.00174102 0.00512708 -0.0233267 -0.00614703 -0.0718362 -0.0131627 -0.00784388 -0.0777466 -0.0390205 -0.0835181 0.0178914 -0.0127461 -0.0372531 0.0013189 -0.0673816 0.0214675 0.016367 -0.0234893 0.00229072 -0.00761739 0.0169292 0.0165537 -0.0133936 0.00218536 -0.03891 0.00751002 0.0121083 0.0187118 -0.00805052 0.0228309 0.0381336 0.0494184 0.02186 -0.0069058 0.0645066 0.0765581 0.0441799 0.0191491 -0.0121377 0.023072 0.0273375 0.0226663 0.01523 -0.0431533 0.0180592 0.0724125 0.0679347 0.017867 -0.0294085 0.0200583 -0.0231763 -0.0318586 -0.0299656 0.000984274 0.00711599 -0.0369429 -0.0407846 -0.0275562 -0.016012 -0.0044144 -0.0493771 -0.0527735 -0.00823093 0.011195 -0.0286731 -0.0775858 -0.0387709 0.00676685 0.0407004 -0.0264706 -0.0306813 -0.022374 0.015025 0.0547552 -0.00541597 -0.022543 -0.0360543 -0.0340491 -0.0317948 0.00542442 -0.00656169 -0.0330593 -0.0443971 -0.0239158 -0.0177333 -0.0281717 -0.0389105 -0.0179901 0.0277944 -0.0337283 -0.0547838 -0.0189495 0.00674371 0.0491971 -0.00553125 -0.0377354 -0.0154198 0.00715748 0.0494715 -0.00332658 -0.00555374 0.0566588 0.0163054 -0.0295995 -0.0329494 0.00148085 0.0172426 -0.0258407 -0.0546017 -0.0106482 -0.0359038 -0.0388279 -0.0299288 -0.0265865 0.0328765 -0.0402854 -0.0350943 -0.0278398 -0.00342455 0.0287424 0.00999961 -0.0170554 -0.0362379 -0.0168874 -0.0169141 -0.00553114 0.00742933 0.0233747 0.0226807 -0.00821473 0.0244202 0.00940384 0.00756454 0.0134215 0.03221 0.0352724 -0.0239882 -0.00887167 0.0224414 0.0410515 0.0358462 0.00345568 -0.00822608 -0.000102906 -0.0242895 -0.0160051 -0.0142166 0.0289611 0.0125306 0.0232429 0.00898708 -0.0433042 -0.0428568 0.00301723 0.000603668 -0.0145016 -0.0299035 0.000121098 0.00376887 0.0653136 0.0544271 0.00634641 -0.00194626 0.00703305 0.0378115 0.0531663 0.0116073 -0.0343329 -0.0130797 -0.0238705 0.019449 0.0133924 -0.0121726 0.0148276 -0.054498 0.0119417 -0.00828463 -0.0288707 -0.0719186 0.0432172 0.0733106 0.0462817 -0.0244157 -0.0419746 0.0555929 0.0572023 0.000608822 -0.0114055 -0.0545432 0.021093 0.025968 -0.0348348 -0.0184161 0.038253 0.0220933 -0.00324262 -0.00211415 -0.00725018 0.0516443 0.011188 0.0324952 0.0065796 -0.00363074 -0.00532619 0.0511457 0.0492476 0.00950407 -0.0441306 -0.0245487 0.0799751 0.0467842 0.0126848 -0.0425694 -0.053475 0.0381944 0.0389187 -0.0125909 -0.0203875 -0.0395152 0.0057522 0.0196838 0.00116458 -0.00569273 0.00109877 -0.0641498 -0.035901 0.00905009 0.00935136 -0.0257769 -0.0401941 -0.0054059 0.0192552 0.00599545 -0.0443847 0.0604878 0.0483737 -0.024045 -0.0668182 -0.0600375 0.0464034 0.0396269 -0.0669257 -0.101804 -0.0580433 -0.0110172 -0.00658607 -0.0297195 -0.0770365 -0.0375274 0.0226247 0.0167097 0.0192558 0.0129764 0.0372479 0.00170602 0.00683615 0.0105898 0.0102924 0.037041 -0.00815527 -0.00970093 0.0106748 0.0110934 0.0111489 0.00901017 0.0269217 0.0287494 0.00645659 -0.00420315 0.0129582 0.0418135 0.0285699 0.0125084 0.0146448 -0.0356446 0.0031325 0.0134826 0.0451138 0.0318109 -0.000333052 0.0829756 0.0138474 0.0337863 -0.00811601 0.0311846 0.0122967 -0.0290613 -0.0412968 0.000181134 -0.0107187 0.0124504 0.0116768 0.00366194 -0.0338472 -0.0263207 0.0169216 0.0161718 0.0229285 -0.00188735 -0.050026 -0.0346189 -0.0185963 0.00445027 0.0404367 -0.0482859 -0.00257054 0.0311484 0.0649463 0.0422095 -0.0200394 -0.00268842 0.0102494 0.0290913 0.0302882 -0.00345383 -0.0170705 -0.0445507 -0.0363393 -0.0466892 0.0718558 0.0679285 0.0232032 -0.0120031 0.0275746 -0.0403812 0.0242319 0.0151246 0.0160415 0.0132904 0.0170075 0.0303133 0.0203876 0.0326759 0.0327903 -0.0394459 0.091937 0.0430046 0.0659591 0.0822192 -0.027964 0.0650534 0.0722614 0.0310983 0.00366403 -0.0663023 -0.0161232 0.0504261 -0.00711898 -0.00576912 -0.0326871 -0.0146527 -0.00864721 -0.0180884 -0.0433679 -0.00995066 -0.00238292 0.0143953 -0.0178519 -0.0203065 -0.0017716 -0.00940008 0.000817319 0.00283149 0.0273918 -0.0176006 -0.0401354 -0.0154172 0.0154343 0.00899599 -0.0244462 -0.0483552 -0.0544877 -0.0255326 -0.0281362 -0.0383414 -0.00171696 0.0171666 -0.00389077 0.0193226 -0.0498305 -0.0011598 0.0133264 -0.035892 -0.03299 -0.0402422 -0.00676877 -0.00961776 -0.0275624 -0.0148577 -0.0496059 -0.0195262 -0.00385138 0.00348868 -0.0116164 -0.0029994 -0.0112489 0.00132863 0.0131743 0.0170543 -0.0431346 -0.0573121 -0.00921509 0.0149241 0.00639997 -0.017177 -0.0527805 -0.0169105 0.0105912 0.00397131 -0.0171008 -0.0254981 -0.0148571 -0.00761085 0.0199195 -0.00717558 -0.0247597 -0.00349852 0.016495 0.00213115 0.00272816 -0.0119484 0.015752 0.0538529 0.0206708 -0.0232526 -0.0173672 0.00631276 0.00444356 -0.0442387 -0.0495826 -0.0292287 -0.0378034 -0.0192736 -0.0744962 -0.0219091 -0.035591 -0.0537271 0.0117495 -0.017776 -0.0154883 -0.056956 -0.0714466 -0.00902091 0.00864418 -0.0201912 -0.020979 -0.0387733 -0.0310732 -0.0486456 0.020021 0.0716187 0.0501462 -0.00765938 -0.00914512 -0.00579317 0.058713 0.0497655 -0.00368996 -0.0128066 -0.00889746 0.0140595 0.0496183 0.0416572 -0.0288423 0.00831236 0.0161791 0.0864664 0.0462602 0.0362351 0.0241021 -0.0184511 0.000192977 0.0173971 0.0368165 -0.0650019 -0.0548602 -0.0331455 -0.0222545 0.00609258 0.00548878 0.00117133 -0.0291315 -0.0261339 0.00232224 0.0371804 0.0431669 -0.0507273 -0.0658241 -0.0367658 0.0313717 -0.0168213 -0.0412355 -0.0462293 -0.0498252 -0.0325893 -0.0419571 -0.0513965 -0.0608211 -0.058219 0.0014228 0.0151214 -0.000795344 0.00117143 0.0143778 0.0132994 0.00665402 0.00771278 0.00452665 0.0105713 0.010398 -0.00193566 0.0253241 0.0183724 0.0284777 0.0312484 0.0154696 0.0247065 -0.00107096 -0.00765382 0.0116275 0.00788034 0.0127482 0.00819904 0.00767677 -0.00251688 0.00437443 -0.0424042 0.00346087 0.0157904 -0.0247641 0.0626567 -0.00737246 0.0335983 0.0344803 -0.0568233 0.0431422 -0.0220118 0.0120944 0.00725303 -0.0358073 0.0287687 -0.0205217 -0.0196507 -0.0687151 -0.0350643 0.00381518 -0.03783 -0.02995 -0.0465922 -0.03637 -0.00519874 -0.0468808 -0.0221891 0.0142405 0.0248269 -0.0339648 -0.0488819 -0.0553647 -0.00108099 0.0200938 -0.0507236 -0.0445311 -0.111465 -0.085272 -0.0124353 -0.0375413 -0.00470107 -0.0818447 -0.10464 -0.00194656 -0.040768 -0.0267249 -0.0558276 -0.026427 -0.0165994 -0.0240738 0.00856176 0.0238981 0.0190311 0.0233066 -0.00975793 -0.0050625 0.0178031 0.0123179 0.0326009 0.0305435 0.00393476 0.00111527 0.00153406 0.0103855 -0.00908807 -0.0198365 -0.0129908 -0.0115327 0.0334508 0.0222056 0.00249091 -0.0153327 -0.00746194 -0.00943607 0.0129527 0.0102377 -0.0265973 -0.00845502 -0.00542387 0.0114551 0.0131558 -0.0122044 0.0028807 -0.0149109 -0.0401757 -0.00229564 0.0130983 -0.0288904 0.0300124 0.00458891 0.0194237 -0.0177442 0.0135751 0.00542509 -0.0352615 -0.016183 -0.0220088 0.00317835 -0.0135791 -0.0321669 -0.00642392 -0.00328866 -0.0240341 -0.00927322 -0.0220774 -0.0079235 -0.00363623 0.00753435 0.00442029 -0.00811434 -0.0058485 -0.0312615 -0.00888418 0.00369696 0.0159015 -0.00808174 -0.00973453 0.00522941 -0.0157958 -0.00995821 1.12084e-05 0.00282887 0.0170506 -0.0422513 -0.0388742 -0.0249314 0.00335964 0.00842945 -0.0125363 -0.0226957 -0.024547 0.0222142 0.0346856 -0.012295 -0.00421187 -0.0180565 0.0174655 0.0228349 -0.0132861 0.00212947 0.00158422 0.00932499 0.00625506 -0.0101633 -0.0169534 -0.0265386 -0.0155236 -0.0209163 0.0526769 -0.00927187 -0.0505626 0.00817814 0.00289564 0.0132951 -0.0227727 -0.0419637 -0.0276832 -0.00765998 -0.0238059 -0.014384 -0.0525326 -0.0835881 -0.0567949 -0.00209865 -0.00505307 -0.014235 -0.0482978 -0.0284407 -0.00717284 -0.0140618 -0.00260994 -0.0446235 0.0172287 0.0576037 0.0266141 -0.0268052 -0.0425431 0.0120821 0.00683727 0.0381964 0.02661 -0.00212618 0.0249079 0.028055 0.0612774 0.0619586 0.0399001 0.0152574 0.0428007 0.065857 0.0631734 0.0257634 0.0513528 0.0222765 0.0378276 0.0550606 0.062703 0.0695582 0.00172995 0.0146052 0.0514047 0.0576894 0.0468213 -0.0431626 -0.0336548 0.0070007 0.0149296 0.0303551 -0.0428701 -0.0235396 -0.0162797 -0.0221724 0.0115875 -0.00901882 0.0151066 -0.0183207 -0.024701 -0.00410709 -0.00508306 0.00181301 -0.0222932 -0.03089 -0.0405803 -0.0159085 -0.00735848 -0.00548396 -0.0315064 -0.0251833 0.0121569 -0.0166598 -0.0196398 -0.0423979 -0.0442781 -0.0301996 -0.020636 -0.0095917 -0.0132822 -0.0210879 -0.0135309 0.00647024 -0.00768523 0.00874709 0.00406407 -0.0349151 -0.0154571 -0.0130963 -0.00177373 0.0149174 -0.0231035 -0.0550395 -0.00534842 0.0207137 0.0188725 0.041487 0.020338 0.0188614 0.0198429 0.00845195 0.0501128 0.0691638 -0.00491062 -0.0341589 0.00421296 -0.00835632 0.0370876 -0.00296478 -0.0293397 -0.00634567 0.000531406 0.00328232 -0.0197073 -0.0222486 -0.00401069 -0.052241 0.0414371 0.0794036 -0.00103448 0.0460871 -0.037425 0.00545172 0.0632974 0.0663667 0.0474401 0.0331085 0.0227304 0.119114 0.0569048 0.0579332 0.0953134 0.0446681 0.0939271 0.0207397 0.0519709 0.0272174 0.0367988 0.0298008 -0.0139384 0.074574 0.0239863 0.00036002 -0.0242208 0.0269244 -0.00694149 -0.0120657 0.00735751 -0.0284227 -0.0781869 -0.0230941 -0.0123551 0.0310219 0.0107486 -0.0242079 -0.0505719 0.0301986 0.0229229 -0.0027425 -0.0413254 -0.053881 -0.0264498 -0.0266942 -0.0466183 0.00524653 0.00176637 -0.0235559 -0.00808471 -0.0117595 0.0328259 0.0359028 -0.0090074 -0.00802087 -0.0174563 0.0293411 0.0317706 -0.00444151 0.0105875 -0.0106101 0.0165071 0.0129795 0.000398304 0.0238131 0.000668023 0.0139584 0.0138321 0.0045595 0.0117827 0.00209606 0.0031443 -0.00794749 -0.0117866 -0.0139776 -0.00111097 0.0166793 -0.00870497 -0.0280405 -0.0116405 -0.0339955 0.00642571 0.039704 -0.0220295 0.00325718 -0.0471097 -0.0141498 0.0181615 -0.0259765 0.00808583 -0.0384073 -0.0254098 -0.00766484 0.000835114 0.0410653 0.021436 -0.0281959 -0.0228199 -0.0785549 0.0627953 -0.012237 -0.022361 0.03272 -0.0289676 0.0447983 0.0188988 0.00370478 0.0414151 0.0647256 0.0146539 0.027384 0.00412507 0.0249028 0.109948 0.0252159 0.00641243 -0.0680918 0.0183126 0.0210862 0.032965 -0.0240127 -0.0685722 -0.0408289 0.0294408 0.0319049 0.0287296 0.0197 -0.0106094 -0.00347076 0.0174991 0.0323676 -0.0363262 -0.0162623 0.00845167 0.0504172 0.0443459 -0.0208411 0.0200417 0.0412319 0.0395797 0.0524236 0.0796318 0.0389533 -0.00150572 0.0181918 -0.0171852 -0.00107629 0.00359816 -0.00787532 -0.00448738 0.00121632 -0.00730769 -0.00822564 -0.0448265 -0.00236613 0.000821083 0.00856393 -0.0118808 -0.016418 -0.0172605 -0.0259275 -0.0224778 -0.0225496 -0.0322375 0.00565435 0.0222188 -0.0254057 0.0255438 -0.00539651 -0.0218918 -0.0141767 0.011852 0.013363 0.010897 -0.01574 -0.0412592 -0.0337202 -0.0067356 0.0298227 0.00175196 -0.00425181 0.0437481 0.0208806 0.0334061 -0.0369591 -0.0597937 -0.0569983 -0.0334361 0.00649634 0.072928 0.0484571 0.0372702 0.0422385 0.0471366 0.0358899 0.000613215 0.00878786 0.0292107 -0.025765 -0.0292671 -0.0163584 -0.0373077 -0.0180319 -0.00303791 -0.0203702 -0.0215711 -0.00948768 -0.00218201 -0.000478677 -0.00921948 -0.020329 -0.0160179 -0.0132079 -0.025846 -0.00995738 -0.00311522 -0.0128411 -0.0106261 -0.0413482 -0.0106264 0.000298637 -0.0197843 -0.000446508 0.0416069 0.0592467 0.0139873 -0.00214818 0.00413654 -0.0193442 -0.00352359 0.0182915 0.008049 0.0175756 -0.0543988 0.0105358 0.0298137 0.0142271 0.0196297 0.02034 0.0190051 0.0278228 0.0216167 0.00574439 -0.0183581 -0.00417218 0.0108208 0.0305123 0.0316638 -0.0182328 -0.0302083 -0.0247698 -0.0200759 -0.0121305 0.00299897 -0.00743632 -0.0232413 -0.0574587 -0.0344269 0.0253609 0.0221898 -0.0168221 -0.025216 -0.0099914 0.0489296 0.0558974 0.0329404 0.0105618 0.0191584 0.0208565 0.0258262 0.0242625 0.00209047 -0.0180359 0.0209328 -0.0358966 0.00160716 0.0222831 0.0816284 0.0139183 0.000683366 -0.0529216 0.0118156 0.0379179 0.00534608 0.0328172 -0.000368483 -0.00125083 0.0323959 -0.0196493 -0.00552437 -0.0308279 -0.0385181 0.00175702 -0.0565992 -0.114998 -0.121329 -0.101713 -0.0550653 0.00869854 0.00844103 0.00914676 0.0150741 0.0509536 -0.00751203 0.0316368 0.0180272 0.0138474 0.0549634 -0.00840441 0.0172115 0.00222819 -0.00124345 0.000166677 -0.0321222 0.00568403 0.0362005 -0.0234715 -0.043316 -0.0122838 0.0140428 0.0326488 0.0441498 0.000752576 -0.0159752 0.0308514 -0.0194777 0.0332314 -0.0321834 -0.0368269 0.0318695 -0.0351416 0.000892354 0.0275613 -0.0440814 0.0269169 -0.059375 -0.061409 0.0201637 -0.0286102 0.0480995 -0.0066138 -0.0465325 -0.0370933 -0.0868664 0.00604776 -0.0244158 -0.0321039 -0.0532602 0.00576705 -0.0181786 0.0047895 -0.0257482 -0.0390855 0.00983082 -0.00997674 -0.00803652 0.016584 0.0191835 -0.0241118 0.00966772 -0.0202904 -0.0169425 0.00756434 -0.0692704 -0.0262541 -0.0201369 -0.0172512 -0.00562941 -0.0402632 -0.00696637 -0.0191922 -0.00784854 0.0142131 0.029711 0.00222019 -0.0249023 -0.0108966 -0.00695426 0.0443107 0.0219776 -0.0215776 -0.0446564 -0.0280687 0.0374958 0.036214 0.033699 -0.00128455 -0.0131204 0.0154678 0.0365254 0.0315666 0.0291642 0.0122331 -0.0147322 0.00281498 0.000190218 0.0200245 0.00490958 -0.00879179 -0.00464619 0.0116268 0.00570946 0.00243189 -0.0334885 -0.027926 -0.00864405 -0.0225338 0.0406173 -0.0358205 -0.00803418 -0.0331141 -0.0238097 0.0300846 -0.0438803 0.0151661 -0.0173329 -0.0104758 -0.0181918 -0.00789824 0.0251088 0.0228513 -0.00866445 -0.0175636 -0.00769374 0.0565693 -0.0415616 -0.0103135 0.071822 0.0167943 0.0577617 0.0377094 0.033593 0.0693004 0.0505253 -0.000644746 0.068239 0.0536569 0.0812094 0.0949611 0.0288944 0.0574369 0.00355491 0.0856472 0.0705677 0.0328388 -0.0136112 -0.00859085 0.0273496 -0.0387991 0.0530522 0.0919908 0.0355739 -0.0539423 0.0121037 -0.0122303 0.0228743 0.0410754 0.00226321 0.031413 -0.0507279 -0.0456825 -0.0518453 -0.0295547 -0.0139537 -0.035415 -0.0627747 -0.0649156 -0.0664681 -0.0546203 -0.0606016 -0.0572797 -0.0566827 -0.0437057 0.0446518 0.00664506 -0.0126365 -0.0191198 0.0255933 0.0736629 -0.0134832 -0.00618205 0.00481455 0.0227682 -0.033599 -0.00938678 0.0105158 -0.00335234 0.0170706 0.00752318 -0.040577 -0.0285632 -0.0161027 0.0297412 0.0345764 -0.0229279 -0.0152068 0.00982333 0.0362981 -0.0172113 0.000290151 0.0122943 0.00906461 0.017063 -0.0507796 -0.0213591 -0.027003 -0.0206127 -0.0171969 4.70747e-05 -0.00198445 -0.0224088 -0.0177066 -0.0282548 0.0017191 0.0122154 0.0103284 -0.0169291 -0.0154955 0.013026 0.0105075 -0.000703378 -0.0128904 -0.00867377 0.031715 0.039238 0.0240412 0.0166306 0.00931651 0.0323627 0.00911255 0.0074624 0.0451507 0.00102766 0.0172562 -0.0408422 -0.0264601 0.021642 -0.0289631 0.0138923 -0.063813 -0.0431824 -0.00907844 -0.0288063 0.00818558 -0.00388232 -0.0348519 -0.00600886 0.0357927 -0.0239904 0.0175041 0.043151 -0.0102294 -0.00750733 -0.000586712 0.0633635 0.0466356 0.00747461 0.0327757 0.021349 0.025134 -0.0211165 -0.0140832 -0.0111628 0.0384443 0.015563 -0.0747234 -0.0414846 -0.0076811 0.0180799 -0.0127255 0.00779367 0.018706 -0.0133452 0.0344252 0.048894 0.0204848 0.00846808 0.038928 0.0388301 0.0375718 0.0275054 0.0154728 0.0255501 0.0113439 0.0284681 0.0123063 0.0111773 0.0125518 -0.013548 -0.00243475 -0.00858675 0.00340725 0.0325732 -0.0440621 -0.0505741 -0.0412249 -0.0145558 -0.0147429 -0.0466536 0.0438969 0.0456058 0.00981087 0.00581287 -0.0272053 -0.0247504 -0.00220605 0.0188351 -0.0316641 -0.00613955 -0.0272205 -0.0271361 -0.00356007 -0.011785 -0.00226142 -0.00986809 -0.0106129 -0.0142238 -0.0435691 0.000202177 -0.00527977 -0.00779062 -0.0152763 -0.0159989 -0.0376017 -0.0036409 -0.00574035 -0.0105869 -0.0103918 -0.0360224 -0.0300308 -0.024627 0.0054819 -0.00680775 -0.0154044 -0.0375223 -0.0176746 -0.022798 -0.0137855 -0.0101365 -0.0109335 -0.010219 -0.00236486 -0.00967225 0.0048159 0.0105978 0.00863884 0.0117354 0.0112086 0.0252661 0.0256303 -0.00382055 0.007514 0.00559362 0.029035 0.0228954 0.00432348 0.00815245 -0.000913359 0.0105031 -0.00509948 -0.0044696 0.00480647 0.00110206 0.002878 -0.00139909 -0.00896349 0.0042319 -0.000257545 -0.0361418 -0.0382442 -0.040046 -0.0129048 -0.0121482 -0.0360124 0.00289638 0.0595112 0.0485343 0.0201892 -0.0254377 0.00189838 0.0827169 0.0108346 0.0108522 -0.00276545 -0.0370555 -0.0247054 -0.015177 0.00829832 0.00424408 -0.0399059 -0.0954498 -0.0567811 -0.00689374 -0.0161749 -0.0127272 0.0113547 -0.0232284 0.0118546 0.0195578 0.0265948 0.00588996 -0.00838202 -0.0314111 -0.0125402 -0.0074171 -0.00644119 -0.00602212 -0.055976 -0.0133279 -0.0172525 0.0140216 0.0390367 0.0122831 0.0182641 -0.00314984 -0.0171724 -0.00899601 -0.0126208 -0.0183882 0.0219749 0.0158796 0.00721846 0.0125442 -0.0182434 -0.0216537 -0.0131385 -0.00390214 -0.0385913 -0.027018 -0.0171798 -0.00778138 0.0035901 -0.0166262 -0.0190106 -0.0206644 -0.0118852 -0.00590779 -0.022214 -0.0250094 -0.00183049 0.00780151 -0.00771949 -0.016876 -0.0290353 -0.0197328 -0.00533959 -0.0238317 -0.0392026 0.0453657 0.00954654 0.0212264 -0.00368047 0.015995 0.0206541 -0.0134912 -0.0149498 -0.0103272 -0.00229287 -0.00657201 -0.0193272 -0.0123413 -0.00663914 -0.00461084 0.0197786 0.0205978 0.0163497 0.00977279 0.00343956 0.011073 -0.00366329 0.0109139 0.00810938 -0.00397029 0.0236268 0.00839563 -0.00942098 -0.00548196 -0.00389458 0.0254569 0.0235815 0.0345622 0.0298704 -0.0175572 -0.00259557 -0.0182702 -0.00997508 -0.00639822 -0.057207 0.00575796 -0.00080547 0.0177409 0.0325652 0.0519974 0.0103494 -0.0171567 0.000265364 -0.0118675 -0.020691 -0.0214224 0.0169015 0.0471198 -0.00968954 -0.057136 -0.043975 -0.0464685 0.00341688 -0.00906802 0.0126801 0.00339578 -0.0484211 -0.0504454 -0.0327665 0.0306748 0.00225983 -0.0177678 -0.0532353 -0.0308127 0.00414761 0.0190024 -0.0599082 -0.0482107 -0.00944593 0.0124329 0.0423313 0.0480961 -0.0109662 -0.00960696 0.0118035 0.029804 0.00747502 0.0101661 0.00675422 0.0209183 0.024553 -0.0329085 0.0198136 0.0262347 0.0208445 -0.0525272 -0.0211447 -0.015255 -0.0176629 0.00342037 -0.0213282 -0.0250291 -0.0184027 -0.00537777 -0.0130205 0.058502 0.065255 0.024202 0.0222979 0.00125959 0.0497397 0.0364281 0.0148527 0.00517146 -0.0165745 0.0192475 -0.0030142 -0.00249235 0.0113687 -0.00391256 -0.011522 -0.0211029 -0.0121935 -0.00153012 -0.00400131 -0.0481721 -0.050206 -0.0550191 -0.0396439 -0.0235487 0.0581561 0.0715741 0.0337123 0.00989485 0.00455263 0.043039 0.0486502 0.018726 0.00206521 0.00761783 -0.00229832 -0.0189506 -0.00270977 0.0060838 0.00681534 -0.0479236 -0.0240768 -0.00259012 0.00526501 0.0273529 -0.0711309 -0.0579086 -0.059969 -0.0216679 -0.0211869 0.0163146 -0.00210725 0.0123306 0.00478942 0.0105738 0.0223856 -0.0335151 0.000635515 0.0384339 -0.0217148 -0.00919111 -0.0895416 -0.0754578 -0.0536721 0.0156708 0.00257018 -0.0497211 -0.0593801 -0.0502174 0.0404032 0.0467038 -0.0130468 -0.0489678 0.0137981 0.0758271 0.0101138 0.00752639 0.0234423 0.00244854 -0.01244 0.00734918 -0.0121118 0.0160797 0.022423 -0.0262878 0.0154116 -0.0239627 -0.0235908 -0.00431933 -0.0459573 -0.012354 -0.0390408 -0.0336839 -0.0179284 -0.0246053 -0.0132337 -0.0295641 -0.0522369 -0.0406981 -0.00510969 -0.0114408 0.00908487 0.015505 0.0535702 0.00139411 -0.00921535 -0.0281342 0.0180715 0.011616 -0.00894915 0.0136805 -0.0492522 -0.0124162 -0.0127802 -0.0293073 -0.00246358 -0.0251593 -0.0199868 -0.0282 -0.0185354 -0.0355667 -0.026627 -0.0162249 -0.0159451 -0.0094327 0.0271095 0.0334947 0.00202187 -0.010364 -0.0162579 0.0165963 0.0230819 0.00526176 0.0441403 0.011574 -0.073102 -0.0449 0.0203831 0.0516453 0.0121768 0.0218353 0.0260165 0.00514907 0.00318463 0.00397212 0.0413619 0.0447344 0.035168 0.0381994 0.0184071 0.0134639 -0.00450374 -0.047734 -0.0386482 -0.0166012 0.0099179 0.00337408 0.000892611 -0.0115262 0.00279507 0.00177839 0.00240704 -0.00141762 0.00970041 0.0105738 0.0238299 -0.00471618 -0.00873051 0.0189744 0.0161105 0.0392935 0.0086815 0.0366903 0.0429076 0.040375 -0.0166543 0.0273046 0.00970784 -0.0077519 0.00259721 -0.0127517 0.0183821 0.0138319 -0.0200985 -0.0404602 0.00527638 -0.00582919 -0.0201924 -0.0223566 -0.0584462 0.0156771 0.0139138 -0.0171571 -0.0485487 -0.0386008 0.0181533 0.0102337 0.00329756 -0.0021144 -0.0019883 -0.0391362 -0.0383861 -0.0154111 -0.0104299 -0.0268605 -0.0496682 -0.0367375 -0.019021 -0.006069 -0.0362052 -0.0342005 -0.0206106 -0.0108991 -0.0228608 -0.0398681 0.0125525 0.0205516 0.00764771 0.00188072 -0.0206478 0.034737 0.0360872 0.0350975 0.0335442 0.00584941 0.0414517 0.0604985 -0.0238145 -0.0210634 0.022514 -0.0102117 0.0395818 0.0619706 0.0607489 0.026091 0.00424366 -0.0240927 0.00613315 0.0231917 0.0363212 0.0114387 -0.0505036 -0.000557531 -0.0101841 -0.038676 -0.037546 -0.0175383 -0.00386106 -0.030051 0.0227813 0.0349067 0.0711392 0.0271908 0.022563 0.00515439 -0.0780186 0.000886744 0.00380795 -0.0334645 -0.0274669 -0.0178416 -0.0601478 -0.0590209 -0.0122876 -0.0140692 -0.00581002 -0.0388805 -0.0136835 -0.0153593 -0.0353478 -0.0662614 -0.0177837 0.0158161 -0.00763678 -0.0305909 0.0609942 0.00876985 0.036036 -0.00175649 -0.0394059 0.0520099 -0.0034309 -0.008223 0.00920408 0.000151382 0.022772 -0.0810492 -0.0373336 0.0156096 -0.00572382 -0.0583066 -0.0869569 -0.0547633 -0.0309825 0.0180902 0.0418947 -0.0135348 -0.0743794 0.0250668 0.0760454 0.0163506 0.0208866 0.0157913 0.0284445 0.0367254 0.00476291 0.000689692 0.0286351 0.0423516 0.0117615 0.0151458 0.0157827 0.0351318 0.0364811 0.00404526 0.0519478 0.0264849 0.0133738 0.0193275 0.0143019 0.0487698 -0.00395396 -0.0132508 -0.0188684 -0.0250749 0.0468099 0.0588536 0.0748601 0.0487441 0.0327583 0.0421707 0.0435503 0.0369345 0.00126392 -0.00586925 0.0341687 0.0263893 -0.0043787 -0.0143657 -0.0345674 0.0579635 0.0387841 0.00542505 -0.0121812 -0.0310131 0.0462415 0.00766081 -0.00859678 -0.0240206 -0.0480401 0.0111156 0.00846772 0.0337476 0.00504691 -0.0378176 0.00411309 0.00629705 0.0100266 -0.00523556 -0.0445191 -0.00571441 0.00476825 -0.00744781 -0.0110337 -0.0362727 0.0187283 0.0181171 -0.00770538 -0.00735696 -0.0254922 -0.00476789 -0.0233662 -0.0369359 -0.0431162 -0.0432528 -0.00199699 0.0351827 0.054179 -0.0125323 -0.0229596 -0.0296076 -0.0111894 0.0371047 -0.0154196 -0.0011063 -0.068849 -0.0714277 -0.0238942 -0.0341814 0.0591975 -0.0266572 -0.0622977 -0.0578904 -0.0529529 0.0576186 0.0123662 -0.0381968 -0.0479054 0.00766816 0.07625 0.0386643 -0.0143152 -0.0318246 -0.0345577 -0.00749227 -0.00164369 -0.0237585 -0.0590168 -0.0341165 -0.00951969 0.0332713 -0.022657 -0.0781218 -0.0368087 -0.0114239 0.0539321 0.00937924 -0.0495446 -0.0361632 -0.0170557 -0.0459938 -0.034771 0.0164105 0.0251446 -0.00192491 -0.036367 -0.0272553 -0.0603392 -0.038341 0.00342049 -0.0274881 -0.0312825 -0.0704382 -0.0622453 -0.0359477 -0.0206 -0.0746342 -0.0476444 -0.037989 -0.0233712 -0.0315076 -0.0195698 0.0514786 0.0357088 0.0381313 0.00784069 -0.00683326 0.0176613 -0.0119257 -0.0144068 -0.0256159 -0.0244017 -0.0119984 -0.0186072 -0.022246 0.00252203 -0.0013638 0.000797602 -0.0110826 -0.00313498 0.008064 -0.0109144 -0.00336098 -0.0141661 -0.00567901 -0.00627724 0.00418796 0.013054 0.00408031 0.00655987 0.0186006 0.0061909 0.0156058 -0.00604488 -0.00137103 -0.00243207 -0.0125528 0.0137173 0.0170444 0.00835513 -0.0117 -0.0108545 -0.0292125 0.0425289 0.0166857 0.0292857 -0.0131857 -0.0377525 0.0555876 0.0663121 -0.0027456 -0.0378252 -0.0322943 0.0508476 0.070011 -0.0345163 -0.0125527 0.0218056 0.0427234 0.0828897 -0.0234499 -0.0379923 0.0100763 -0.0175244 0.00160189 -0.0231915 -0.0454968 -0.0159408 0.0328503 0.0217204 -0.0302183 -0.0248186 -0.0139358 0.0569261 0.0486946 -0.00980378 -0.0307223 -0.0106474 0.0343437 0.0530197 0.011419 -0.0159465 -0.0411736 -0.0617167 -0.0106173 -0.00436827 -0.00221109 0.00763562 -0.0170252 -0.0590928 0.00301687 0.0110208 0.0113048 -0.00767293 -0.0269371 0.0158567 0.0317908 0.0237946 -0.0102731 -0.0335018 -0.0139263 0.00990259 -0.000884459 -0.0135647 -0.0372257 -0.0357059 -0.007278 -0.021314 -0.015288 -0.0193052 0.00331668 -0.0318526 -0.0160263 -0.0146911 0.00577431 0.0115035 -0.0247867 -0.0406229 0.00480763 0.010205 0.0200993 -0.0341345 -0.0327896 0.0301903 0.0172321 0.0140778 -0.00568522 -0.0299388 -0.0244682 -0.0186583 0.0049329 0.00310391 -0.0185157 -0.0267466 -0.0107372 -0.0410261 -0.0527269 -0.0508952 -0.0438555 -0.0121241 -0.00848601 -0.042699 -0.0459636 -0.0349687 -0.00931448 0.0274179 -0.0157956 -0.0293079 -0.0148236 0.00895466 0.042283 0.0283784 -0.00240482 -0.0163986 0.00792934 0.0350266 0.0312055 0.00245078 -0.0136895 0.015726 0.0079758 0.00828531 -0.00228659 0.00783264 0.00350207 0.00828299 0.00270815 0.00499455 0.00593802 0.00379678 0.00375904 0.000568752 -0.00942017 0.0105947 0.0106294 0.00446779 0.00384793 -0.00511854 -0.00476084 -0.00294201 0.0159537 0.0167074 -0.00628473 -0.00727978 -0.00278162 -0.0208346 -0.0451804 -0.0242423 -0.0155898 0.0365454 -0.0289241 -0.0647452 -0.0267357 -0.0374579 0.0392971 -0.00855699 -0.0518423 -0.0193633 -0.00991749 0.0429131 0.0271569 -0.0545937 -0.0502516 0.0332893 -0.0123671 0.0442882 -0.00747788 -0.0643056 -0.0593574 -0.0618042 0.0569658 0.0614703 0.0503957 0.0192628 -0.0216379 0.0386406 0.0419252 0.0426984 0.0302073 0.00244076 -0.00971916 -0.0078786 -0.00457991 -0.0247961 -0.0496121 0.0143085 0.0442762 0.0829251 0.0412005 0.0169883 -0.0769943 -0.0396051 -0.0210346 -0.0198282 -0.00498311 0.0130577 0.0378683 0.0354505 0.0466593 0.0437497 0.017886 0.0392443 0.0294323 0.0204629 0.0298932 0.0318408 0.0385971 0.022987 0.0153692 0.0454426 0.0212916 0.0275997 0.00482493 -0.0127609 0.0134061 -0.0331846 -0.0305181 -0.0589257 -0.0751052 -0.0667624 0.000105 0.00838951 0.00146139 0.0344033 0.0438286 -0.0103234 0.00331833 0.00174843 0.0268148 0.0222641 -0.0163233 -0.00325487 -0.00342502 -0.00443054 0.020583 -0.025628 -0.00905888 -0.0150453 0.0163531 0.0638835 -0.0469201 -0.0319287 -0.0368513 -0.00753123 0.0238785 0.0413878 0.0437464 0.0303852 -0.00425479 -0.0434834 0.00499469 0.00645695 -0.00219006 -0.00345433 0.0118302 -0.00253901 0.0282517 0.0109815 -0.00405978 -0.0128874 0.0783414 0.110364 0.0812477 -0.00436445 -0.0420597 -0.00302495 0.0255804 0.065674 0.0497118 0.0339023 0.0316588 0.00873191 -0.0133416 0.0364932 0.0578409 0.0402938 0.0201586 0.00759523 0.0444281 0.100456 0.0627171 0.00481665 -0.00631941 0.0643697 0.0511549 0.000925508 0.0124078 -0.0134236 -0.013057 -0.0179339 -0.0355919 0.0118252 -0.000880068 0.0188121 0.00641712 -0.0548268 0.013983 0.0169574 -0.00253634 0.00420535 -0.00608901 -0.0195299 -0.0266261 -0.00427264 -0.0302082 0.00660312 -0.0112916 -0.0568795 -0.0728999 -0.0698028 -0.0343017 -0.0143887 0.00906932 -0.0341328 -0.018996 -0.000779881 -0.0167823 -0.0131099 -0.00938136 -0.0157151 -0.00176831 -0.00347931 0.000798289 -0.00873341 -0.0085549 0.00295031 0.00147119 0.00943005 0.0173227 -0.00360562 0.0227466 0.00442376 0.000597124 0.00574088 -0.00953734 -0.00633592 -0.0118191 -0.00564145 -0.0161838 -0.0239419 -0.00968332 -0.00684524 -0.0123175 -0.0118791 -0.0142235 0.0207576 -0.00104817 -0.00717103 0.00760788 -0.0294762 0.00656989 0.0220387 0.015878 0.022789 -0.00846085 0.0234233 0.0329894 0.0117342 0.000670308 -0.0117423 -0.0160792 -0.0148056 -0.0277093 -0.00875367 -0.00254561 -0.0192315 -0.0046785 -0.0259456 0.00490942 7.12904e-05 -0.00216155 -0.034747 -0.0248963 0.0207994 0.0367845 0.0182708 -0.0286261 -0.00859341 0.0754547 0.0530498 0.0021236 -0.0117673 -0.00352597 0.0809214 0.0611356 -0.0226473 -0.0148402 0.0156538 0.0742384 0.044621 -0.0218533 0.0790108 0.0361823 0.00798483 0.00552083 0.00249173 0.0138032 -0.0217742 -0.0249369 0.00234868 0.0128501 -0.0236269 -0.0404705 -0.0288018 0.0134718 0.0442348 0.0117748 -0.0535459 -0.0483133 0.00125642 0.0455149 0.0398572 -0.0221116 -0.0417879 -0.0232472 -0.0464464 -0.0306576 -0.00466869 0.0170368 0.0678007 -0.00698662 -0.0332938 -0.0364752 -0.0425609 -0.0240773 -0.0150753 -0.0327939 -0.0321266 0.000160185 0.0106734 0.0330064 0.00579279 -0.0435905 -0.00514076 0.00506633 0.0496847 0.0115107 -0.0150265 -0.0418761 -0.00779418 0.0179858 0.0411194 0.00275467 0.0173115 0.015807 0.0540414 0.032614 0.0600551 0.0544508 0.00873097 0.0452696 0.0307053 -0.00382222 -0.0452354 -0.0553229 -0.0479893 -0.0494016 -0.0372152 -0.0239152 -0.000380822 0.0504335 0.101481 0.0774082 0.0121387 -0.0429658 0.069931 0.156739 0.152539 0.117157 0.0321667 -0.0254447 -0.0474556 -0.0515306 -0.046367 -0.00330583 -0.0115725 -0.0374565 -0.0466438 -0.0454606 -0.0356414 -0.0234006 -0.0319072 -0.0169915 -0.0140366 -0.0118714 0.00885517 0.0251851 0.0235961 0.000704262 0.00641164 0.0473698 0.00587152 0.0234723 -0.027308 0.0265366 0.00308991 0.0330175 0.00368452 -0.0163391 -0.00729208 -0.0187262 -0.0160567 -0.0174929 -0.00887217 0.0253701 -0.0470709 -0.015822 